{"learner":{"attributes":{"scikit_learn":"{\"_estimator_type\": \"regressor\"}"},"feature_names":["market_cat","arrival_quantity_log","qty_rolling_14d_log","temp_avg_c","precipitation_mm","rain_7d_rolling","month_sin","month_cos","doy_sin","doy_cos","week_sin","week_cos","year_trend","harvest_signal","monsoon_signal","summer_signal","festival_demand_factor","price_lag_7","price_lag_30","market_month_median","price_spread","market_price_trend"],"feature_types":["c","float","float","float","float","float","float","float","float","float","float","float","float","float","float","float","float","float","float","float","float","float"],"gradient_booster":{"model":{"cats":{"enc":[{"offsets":[0,14,28,42,56,69,84,94,110,129,144,161,181,202,221,236,250,262,281,291,305,318,329,343,355,369,381,395,416,428,440,451,464,478,488,498,508,518,532,544,555,569,583,593,607,631,647,661,673,689,700,715,730,747,759,786,795,805,819,839,849,862,873,883,896],"values":[65,114,97,107,97,108,103,117,100,32,65,80,77,67,65,114,97,115,105,107,101,114,101,32,65,80,77,67,66,97,110,103,97,108,111,114,101,32,65,80,77,67,66,97,110,103,97,114,112,101,116,32,65,80,77,67,66,97,110,116,119,97,108,97,32,65,80,77,67,66,101,108,116,104,97,110,103,100,105,32,65,80,77,67,66,101,108,117,114,32,65,80,77,67,66,104,97,100,114,97,118,97,116,104,105,32,65,80,77,67,67,104,97,109,97,114,97,106,32,78,97,103,97,114,32,65,80,77,67,67,104,97,110,110,97,103,105,114,105,32,65,80,77,67,67,104,97,110,110,97,112,97,116,97,110,97,32,65,80,77,67,67,104,97,110,110,97,114,97,121,97,112,97,116,110,97,32,65,80,77,67,67,104,105,99,107,107,97,98,97,108,108,97,112,117,114,97,32,65,80,77,67,67,104,105,107,107,97,109,97,103,97,108,111,114,101,32,65,80,77,67,67,104,105,110,116,97,109,97,110,105,32,65,80,77,67,68,97,118,97,110,103,101,114,101,32,65,80,77,67,68,104,97,114,119,97,114,32,65,80,77,67,68,111,100,100,97,98,97,108,108,97,32,80,117,114,32,65,80,77,67,71,117,98,98,105,32,65,80,77,67,71,117,110,100,108,117,112,101,116,32,65,80,77,67,72,97,114,105,104,97,114,97,32,65,80,77,67,72,97,115,115,97,110,32,65,80,77,67,72,105,114,101,107,101,114,117,114,32,65,80,77,67,72,105,114,105,121,117,114,32,65,80,77,67,72,111,108,97,108,107,101,114,101,32,65,80,77,67,72,111,110,110,97,108,105,32,65,80,77,67,72,111,115,97,100,117,114,103,97,32,65,80,77,67,72,117,98,108,105,32,40,65,109,97,114,97,103,111,108,41,32,65,80,77,67,72,117,108,105,121,97,114,32,65,80,77,67,72,117,110,103,117,110,100,32,65,80,77,67,72,117,110,115,117,114,32,65,80,77,67,75,46,82,46,32,80,101,116,32,65,80,77,67,75,46,82,46,78,97,103,97,114,32,65,80,77,67,75,97,100,117,114,32,65,80,77,67,75,111,108,97,114,32,65,80,77,67,75,111,112,112,97,32,65,80,77,67,75,117,109,116,97,32,65,80,77,67,75,117,110,100,97,112,117,114,97,32,65,80,77,67,75,117,110,105,103,97,108,32,65,80,77,67,77,97,100,100,117,114,32,65,80,77,67,77,97,100,104,117,103,105,114,105,32,65,80,77,67,77,97,108,97,118,97,108,108,105,32,65,80,77,67,77,97,108,117,114,32,65,80,77,67,77,97,110,103,97,108,111,114,101,32,65,80,77,67,77,121,115,111,114,101,32,40,66,97,110,100,105,112,97,108,121,97,41,32,65,80,77,67,78,97,103,97,109,97,110,103,97,108,97,32,65,80,77,67,78,97,110,106,97,110,103,117,100,32,65,80,77,67,78,105,112,112,97,110,105,32,65,80,77,67,80,97,110,100,97,118,97,112,117,114,97,32,65,80,77,67,80,117,116,116,117,114,32,65,80,77,67,82,97,109,97,110,97,103,97,114,97,32,65,80,77,67,82,97,110,101,98,101,110,110,117,114,32,65,80,77,67,83,97,110,116,104,101,115,97,114,103,117,114,32,65,80,77,67,83,104,105,109,111,103,97,32,65,80,77,67,83,104,105,109,111,103,103,97,40,84,104,101,101,114,116,97,104,97,108,108,105,41,32,65,80,77,67,83,105,114,97,32,65,80,77,67,83,105,114,115,105,32,65,80,77,67,83,111,109,118,97,114,112,101,116,32,65,80,77,67,83,114,105,114,97,110,103,97,112,97,116,116,97,110,97,32,65,80,77,67,83,117,108,121,97,32,65,80,77,67,84,97,114,105,107,101,114,101,32,65,80,77,67,84,117,109,107,117,114,32,65,80,77,67,85,100,117,112,105,32,65,80,77,67,89,101,108,108,97,112,117,114,32,65,80,77,67]},{"offsets":[],"values":[]},{"offsets":[],"values":[]},{"offsets":[],"values":[]},{"offsets":[],"values":[]},{"offsets":[],"values":[]},{"offsets":[],"values":[]},{"offsets":[],"values":[]},{"offsets":[],"values":[]},{"offsets":[],"values":[]},{"offsets":[],"values":[]},{"offsets":[],"values":[]},{"offsets":[],"values":[]},{"offsets":[],"values":[]},{"offsets":[],"values":[]},{"offsets":[],"values":[]},{"offsets":[],"values":[]},{"offsets":[],"values":[]},{"offsets":[],"values":[]},{"offsets":[],"values":[]},{"offsets":[],"values":[]},{"offsets":[],"values":[]}],"feature_segments":[0,64,64,64,64,64,64,64,64,64,64,64,64,64,64,64,64,64,64,64,64,64,64],"sorted_idx":[0,1,2,3,4,5,6,7,8,9,10,11,12,13,14,15,16,17,18,19,20,21,22,23,24,25,26,27,28,29,30,31,32,33,34,35,36,37,38,39,40,41,42,43,44,45,46,47,48,49,50,51,52,53,54,55,56,57,58,59,60,61,62,63]},"gbtree_model_param":{"num_parallel_tree":"1","num_trees":"700"},"iteration_indptr":[0,1,2,3,4,5,6,7,8,9,10,11,12,13,14,15,16,17,18,19,20,21,22,23,24,25,26,27,28,29,30,31,32,33,34,35,36,37,38,39,40,41,42,43,44,45,46,47,48,49,50,51,52,53,54,55,56,57,58,59,60,61,62,63,64,65,66,67,68,69,70,71,72,73,74,75,76,77,78,79,80,81,82,83,84,85,86,87,88,89,90,91,92,93,94,95,96,97,98,99,100,101,102,103,104,105,106,107,108,109,110,111,112,113,114,115,116,117,118,119,120,121,122,123,124,125,126,127,128,129,130,131,132,133,134,135,136,137,138,139,140,141,142,143,144,145,146,147,148,149,150,151,152,153,154,155,156,157,158,159,160,161,162,163,164,165,166,167,168,169,170,171,172,173,174,175,176,177,178,179,180,181,182,183,184,185,186,187,188,189,190,191,192,193,194,195,196,197,198,199,200,201,202,203,204,205,206,207,208,209,210,211,212,213,214,215,216,217,218,219,220,221,222,223,224,225,226,227,228,229,230,231,232,233,234,235,236,237,238,239,240,241,242,243,244,245,246,247,248,249,250,251,252,253,254,255,256,257,258,259,260,261,262,263,264,265,266,267,268,269,270,271,272,273,274,275,276,277,278,279,280,281,282,283,284,285,286,287,288,289,290,291,292,293,294,295,296,297,298,299,300,301,302,303,304,305,306,307,308,309,310,311,312,313,314,315,316,317,318,319,320,321,322,323,324,325,326,327,328,329,330,331,332,333,334,335,336,337,338,339,340,341,342,343,344,345,346,347,348,349,350,351,352,353,354,355,356,357,358,359,360,361,362,363,364,365,366,367,368,369,370,371,372,373,374,375,376,377,378,379,380,381,382,383,384,385,386,387,388,389,390,391,392,393,394,395,396,397,398,399,400,401,402,403,404,405,406,407,408,409,410,411,412,413,414,415,416,417,418,419,420,421,422,423,424,425,426,427,428,429,430,431,432,433,434,435,436,437,438,439,440,441,442,443,444,445,446,447,448,449,450,451,452,453,454,455,456,457,458,459,460,461,462,463,464,465,466,467,468,469,470,471,472,473,474,475,476,477,478,479,480,481,482,483,484,485,486,487,488,489,490,491,492,493,494,495,496,497,498,499,500,501,502,503,504,505,506,507,508,509,510,511,512,513,514,515,516,517,518,519,520,521,522,523,524,525,526,527,528,529,530,531,532,533,534,535,536,537,538,539,540,541,542,543,544,545,546,547,548,549,550,551,552,553,554,555,556,557,558,559,560,561,562,563,564,565,566,567,568,569,570,571,572,573,574,575,576,577,578,579,580,581,582,583,584,585,586,587,588,589,590,591,592,593,594,595,596,597,598,599,600,601,602,603,604,605,606,607,608,609,610,611,612,613,614,615,616,617,618,619,620,621,622,623,624,625,626,627,628,629,630,631,632,633,634,635,636,637,638,639,640,641,642,643,644,645,646,647,648,649,650,651,652,653,654,655,656,657,658,659,660,661,662,663,664,665,666,667,668,669,670,671,672,673,674,675,676,677,678,679,680,681,682,683,684,685,686,687,688,689,690,691,692,693,694,695,696,697,698,699,700],"tree_info":[0,0,0,0,0,0,0,0,0,0,0,0,0,0,0,0,0,0,0,0,0,0,0,0,0,0,0,0,0,0,0,0,0,0,0,0,0,0,0,0,0,0,0,0,0,0,0,0,0,0,0,0,0,0,0,0,0,0,0,0,0,0,0,0,0,0,0,0,0,0,0,0,0,0,0,0,0,0,0,0,0,0,0,0,0,0,0,0,0,0,0,0,0,0,0,0,0,0,0,0,0,0,0,0,0,0,0,0,0,0,0,0,0,0,0,0,0,0,0,0,0,0,0,0,0,0,0,0,0,0,0,0,0,0,0,0,0,0,0,0,0,0,0,0,0,0,0,0,0,0,0,0,0,0,0,0,0,0,0,0,0,0,0,0,0,0,0,0,0,0,0,0,0,0,0,0,0,0,0,0,0,0,0,0,0,0,0,0,0,0,0,0,0,0,0,0,0,0,0,0,0,0,0,0,0,0,0,0,0,0,0,0,0,0,0,0,0,0,0,0,0,0,0,0,0,0,0,0,0,0,0,0,0,0,0,0,0,0,0,0,0,0,0,0,0,0,0,0,0,0,0,0,0,0,0,0,0,0,0,0,0,0,0,0,0,0,0,0,0,0,0,0,0,0,0,0,0,0,0,0,0,0,0,0,0,0,0,0,0,0,0,0,0,0,0,0,0,0,0,0,0,0,0,0,0,0,0,0,0,0,0,0,0,0,0,0,0,0,0,0,0,0,0,0,0,0,0,0,0,0,0,0,0,0,0,0,0,0,0,0,0,0,0,0,0,0,0,0,0,0,0,0,0,0,0,0,0,0,0,0,0,0,0,0,0,0,0,0,0,0,0,0,0,0,0,0,0,0,0,0,0,0,0,0,0,0,0,0,0,0,0,0,0,0,0,0,0,0,0,0,0,0,0,0,0,0,0,0,0,0,0,0,0,0,0,0,0,0,0,0,0,0,0,0,0,0,0,0,0,0,0,0,0,0,0,0,0,0,0,0,0,0,0,0,0,0,0,0,0,0,0,0,0,0,0,0,0,0,0,0,0,0,0,0,0,0,0,0,0,0,0,0,0,0,0,0,0,0,0,0,0,0,0,0,0,0,0,0,0,0,0,0,0,0,0,0,0,0,0,0,0,0,0,0,0,0,0,0,0,0,0,0,0,0,0,0,0,0,0,0,0,0,0,0,0,0,0,0,0,0,0,0,0,0,0,0,0,0,0,0,0,0,0,0,0,0,0,0,0,0,0,0,0,0,0,0,0,0,0,0,0,0,0,0,0,0,0,0,0,0,0,0,0,0,0,0,0,0,0,0,0,0,0,0,0,0,0,0,0,0,0,0,0,0,0,0,0,0,0,0,0,0,0,0,0,0,0,0,0,0,0,0,0,0,0,0,0,0,0,0,0,0,0,0,0,0,0,0,0,0,0,0,0,0,0,0,0,0,0,0,0,0,0,0,0,0,0,0,0,0,0,0,0,0,0,0,0,0,0,0,0,0,0,0,0,0,0,0,0,0,0,0,0,0,0,0,0,0,0,0,0,0,0,0,0,0,0,0,0,0,0,0,0,0,0,0,0,0,0,0],"trees":[{"base_weights":[-2.6123049E1,-2.627464E3,4.1656094E3,-1.1376255E4,-2.0958535E3,1.9387638E3,6.193128E3,-1.24926875E4,2.4375916E3,-3.4075332E3,-4.2231485E2,6.874291E2,2.8902156E3,5.5190293E3,1.1084738E4,-4.5043304E2,-3.3264822E2,-8.1034E1,2.0317389E2,-4.030626E3,-2.2199219E3,-1.4060891E3,4.6889633E2,-1.4588285E3,1.2645385E3,2.538545E3,3.742928E3,2.150109E3,5.8238813E3,-1.4265733E2,1.1870795E4,-4.0706936E3,1.3927017E2,-2.467631E3,-9.585539E2,-1.4855417E3,1.7228764E2,1.5570789E2,2.5111248E3,-2.5224413E2,-1.0015881E3,2.0188786E2,1.1710726E3,1.9227788E3,3.0359714E3,4.3254053E3,2.6451396E3,2.857782E2,6.73319E3,5.30119E3,7.7593755E3,7.332557E3,1.3086206E4,-1.8350793E2,-1.3374161E2,-8.8960686E1,6.391073E1,-4.36275E1,1.0283174E2,-1.4080559E2,-4.6293488E1,-9.961525E0,2.0641872E1,3.072764E1,1.4588579E2,-6.002267E1,6.1581852E1,-3.1582048E1,4.6015823E1,8.73848E1,3.93704E1,1.0232665E2,2.1150479E2,1.6649171E2,9.599167E1,1.0359116E2,-2.110952E1,-6.093711E1,6.40571E1,2.6571698E2,9.573555E1,1.8203719E2,3.6932312E2,6.738556E1,2.7676056E2,1.1029841E2,2.869627E2,2.4763298E2,4.956863E2],"categories":[],"categories_nodes":[],"categories_segments":[],"categories_sizes":[],"default_left":[0,0,0,0,0,0,0,0,0,0,0,0,0,0,0,0,0,0,0,0,0,0,0,0,0,0,0,0,0,0,0,0,0,0,0,0,0,0,0,0,0,0,0,0,0,0,0,0,0,0,0,0,0,0,0,0,0,0,0,0,0,0,0,0,0,0,0,0,0,0,0,0,0,0,0,0,0,0,0,0,0,0,0,0,0,0,0,0,0],"id":0,"left_children":[1,3,5,7,9,11,13,15,17,19,21,23,25,27,29,-1,-1,-1,-1,31,33,35,37,39,41,43,45,47,49,-1,51,53,-1,55,57,59,-1,61,63,-1,65,-1,67,69,71,73,75,77,79,81,83,85,87,-1,-1,-1,-1,-1,-1,-1,-1,-1,-1,-1,-1,-1,-1,-1,-1,-1,-1,-1,-1,-1,-1,-1,-1,-1,-1,-1,-1,-1,-1,-1,-1,-1,-1,-1,-1],"loss_changes":[5.8871435E10,1.5458871E10,9.316688E9,2.9836124E9,6.89609E9,1.1727214E9,3.4744033E9,1.5290368E7,2.6823213E8,1.2900741E9,1.2130967E9,5.33518E8,1.5382682E8,9.604833E8,1.6158454E9,0E0,0E0,0E0,0E0,3.944919E8,1.8689178E8,3.415753E8,4.6408435E8,2.2965962E8,1.3235539E8,1.1422182E8,8.546688E7,6.934799E8,8.219873E8,0E0,5.372703E8,3.0590157E8,0E0,1.6875162E8,1.20499464E8,2.6085683E8,0E0,1.209482E8,2.5566509E8,0E0,1.7489614E8,0E0,1.0112179E8,7.981978E7,4.765555E7,5.043456E7,6.3482784E7,1.9103256E8,4.9526976E7,2.8176384E8,1.3481472E8,6.810483E7,4.675205E8,0E0,0E0,0E0,0E0,0E0,0E0,0E0,0E0,0E0,0E0,0E0,0E0,0E0,0E0,0E0,0E0,0E0,0E0,0E0,0E0,0E0,0E0,0E0,0E0,0E0,0E0,0E0,0E0,0E0,0E0,0E0,0E0,0E0,0E0,0E0,0E0],"parents":[2147483647,0,0,1,1,2,2,3,3,4,4,5,5,6,6,7,7,8,8,9,9,10,10,11,11,12,12,13,13,14,14,19,19,20,20,21,21,22,22,23,23,24,24,25,25,26,26,27,27,28,28,30,30,31,31,33,33,34,34,35,35,37,37,38,38,40,40,42,42,43,43,44,44,45,45,46,46,47,47,48,48,49,49,50,50,51,51,52,52],"right_children":[2,4,6,8,10,12,14,16,18,20,22,24,26,28,30,-1,-1,-1,-1,32,34,36,38,40,42,44,46,48,50,-1,52,54,-1,56,58,60,-1,62,64,-1,66,-1,68,70,72,74,76,78,80,82,84,86,88,-1,-1,-1,-1,-1,-1,-1,-1,-1,-1,-1,-1,-1,-1,-1,-1,-1,-1,-1,-1,-1,-1,-1,-1,-1,-1,-1,-1,-1,-1,-1,-1,-1,-1,-1,-1],"split_conditions":[1.5625E4,8.5E3,1.96E4,2E3,1.3968E4,1.61E4,2.56E4,3.7E3,5E-1,1.167E4,1.325E4,1.35E4,7.5E-1,1.75E4,1.4123E4,-4.5043304E2,-3.3264822E2,-8.1034E1,2.0317389E2,1.35E4,1E4,1.3E4,1.818E4,5.465E3,-9.9925E-1,1.875E4,8.101981E0,1E0,2.25E4,-1.4265733E2,-5.160624E-1,9.6E3,1.3927017E2,1E0,8.160804E0,1.299283E0,1.7228764E2,1.4454E4,7.5E-1,-2.5224413E2,1.7869E4,2.0188786E2,1.2257E4,1E2,9.979172E-1,4.418123E1,2.123E4,1.7393354E-15,2.25E4,1.4E4,-7.2759056E1,1E2,2.75E4,-1.8350793E2,-1.3374161E2,-8.8960686E1,6.391073E1,-4.36275E1,1.0283174E2,-1.4080559E2,-4.6293488E1,-9.961525E0,2.0641872E1,3.072764E1,1.4588579E2,-6.002267E1,6.1581852E1,-3.1582048E1,4.6015823E1,8.73848E1,3.93704E1,1.0232665E2,2.1150479E2,1.6649171E2,9.599167E1,1.0359116E2,-2.110952E1,-6.093711E1,6.40571E1,2.6571698E2,9.573555E1,1.8203719E2,3.6932312E2,6.738556E1,2.7676056E2,1.1029841E2,2.869627E2,2.4763298E2,4.956863E2],"split_indices":[17,19,17,20,19,19,17,19,12,17,17,19,12,19,19,0,0,0,0,20,20,20,19,19,8,19,1,12,17,0,8,18,0,12,2,2,0,18,12,0,18,0,18,20,8,21,18,21,17,20,21,20,17,0,0,0,0,0,0,0,0,0,0,0,0,0,0,0,0,0,0,0,0,0,0,0,0,0,0,0,0,0,0,0,0,0,0,0,0],"split_type":[0,0,0,0,0,0,0,0,0,0,0,0,0,0,0,0,0,0,0,0,0,0,0,0,0,0,0,0,0,0,0,0,0,0,0,0,0,0,0,0,0,0,0,0,0,0,0,0,0,0,0,0,0,0,0,0,0,0,0,0,0,0,0,0,0,0,0,0,0,0,0,0,0,0,0,0,0,0,0,0,0,0,0,0,0,0,0,0,0],"sum_hessian":[5.396E3,3.33E3,2.066E3,1.89E2,3.141E3,9.86E2,1.08E3,1.75E2,1.4E1,1.76E3,1.381E3,4.27E2,5.59E2,9.52E2,1.28E2,1.51E2,2.4E1,6E0,8E0,1.152E3,6.08E2,6.56E2,7.25E2,9E1,3.37E2,4E2,1.59E2,8E1,8.72E2,6E0,1.22E2,1.147E3,5E0,5.07E2,1.01E2,6.49E2,7E0,6.3E2,9.5E1,5E0,8.5E1,5E0,3.32E2,1.82E2,2.18E2,1.01E2,5.8E1,5.8E1,2.2E1,6.91E2,1.81E2,2.8E1,9.4E1,1.96E2,9.51E2,4.99E2,8E0,9.5E1,6E0,3.7E1,6.12E2,3.13E2,3.17E2,4.9E1,4.6E1,6.8E1,1.7E1,2.1E1,3.11E2,1.04E2,7.8E1,2.13E2,5E0,7.7E1,2.4E1,5.3E1,5E0,2.5E1,3.3E1,1.7E1,5E0,6.81E2,1E1,5E0,1.76E2,6E0,2.2E1,1.6E1,7.8E1],"tree_param":{"num_deleted":"0","num_feature":"22","num_nodes":"89","size_leaf_vector":"1"}},{"base_weights":[1.2665312E0,-2.58477E3,4.112353E3,-1.1015213E4,-2.0602454E3,2.0007361E3,6.049849E3,-4.2281458E2,-6.779172E3,-3.225703E3,-3.832621E2,8.8350183E2,2.8361072E3,5.412213E3,1.1311127E4,-7.953828E3,5.467351E1,-3.7173113E3,-1.9297959E3,-1.295887E3,5.7529144E2,-9.002689E2,1.318573E3,2.399902E3,3.8460234E3,2.303796E3,5.6747534E3,3.6519858E3,1.3560498E4,-3.5129892E2,-4.3899043E3,-4.200332E3,-2.9674258E3,-6.5707256E3,-1.79857E3,-1.8091246E3,-6.922865E2,-8.5203876E2,8.739078E2,-1.2880479E3,1.4384871E2,9.062962E2,2.3324937E3,1.9447041E3,3.3123303E3,2.7873193E3,4.442981E3,4.827222E2,6.535067E3,5.1438096E3,7.4056743E3,-1.5726874E2,5.671862E3,2.8117368E2,5.01977E2,-2.2035686E2,-1.6345568E-1,-1.8321118E2,-1.3548424E2,-1.0723404E2,-5.5301838E1,-2.1916666E1,-3.4849484E2,-6.727844E1,1.00350945E2,-8.842311E1,-4.895897E1,-3.5922703E1,5.5172124E0,-1.1600606E1,-5.155551E1,1.6907566E1,7.211894E1,-1.698162E2,-2.9736515E1,-7.347532E1,3.432239E1,-1.787483E1,9.063086E1,7.299056E1,-1.5112033E2,1.9037943E2,1.0950361E2,1.0764485E2,-1.8858524E1,1.6350768E2,-5.3560653E0,-9.849418E1,4.186896E1,2.6674844E2,1.14557625E2,1.7736876E2,3.0370267E2,2.7890982E2,2.0050208E2,9.350702E1,2.95892E2],"categories":[],"categories_nodes":[],"categories_segments":[],"categories_sizes":[],"default_left":[0,0,0,0,0,0,0,0,0,0,0,0,0,0,0,0,0,0,0,0,0,0,0,0,0,0,0,0,0,0,0,0,0,0,0,0,0,0,0,0,0,0,0,0,0,0,0,0,0,0,0,0,0,0,0,0,0,0,0,0,0,0,0,0,0,0,0,0,0,0,0,0,0,0,0,0,0,0,0,0,0,0,0,0,0,0,0,0,0,0,0,0,0,0,0,0,0],"id":1,"left_children":[1,3,5,7,9,11,13,-1,15,17,19,21,23,25,27,29,-1,31,33,35,37,39,41,43,45,47,49,51,53,-1,55,57,59,61,63,65,67,69,71,73,-1,75,77,79,81,83,85,87,89,91,93,-1,95,-1,-1,-1,-1,-1,-1,-1,-1,-1,-1,-1,-1,-1,-1,-1,-1,-1,-1,-1,-1,-1,-1,-1,-1,-1,-1,-1,-1,-1,-1,-1,-1,-1,-1,-1,-1,-1,-1,-1,-1,-1,-1,-1,-1],"loss_changes":[5.7611665E10,1.4675659E10,8.5427814E9,7.547863E8,6.1224233E9,9.3281306E8,3.5665633E9,0E0,4.350583E8,1.1668767E9,1.1265482E9,3.366536E8,2.3879834E8,7.764767E8,1.9328051E9,2.123305E8,0E0,4.6612275E8,2.93781E8,2.024279E8,2.689988E8,1.7405522E8,1.420894E8,1.583406E8,8.917939E7,6.001456E8,7.6860006E8,5.071296E8,2.1384806E8,0E0,1.3786691E8,2.4569549E8,6.355763E7,2.6239872E8,2.9648742E8,9.931712E7,8.6986E7,3.466616E7,2.3990278E8,1.195979E8,0E0,5.883773E7,7.467744E7,2.54563E8,2.6233088E7,6.5284224E7,1.1299981E8,1.3796048E8,4.585453E7,1.2032205E8,1.2750029E8,0E0,1.6227974E8,0E0,0E0,0E0,0E0,0E0,0E0,0E0,0E0,0E0,0E0,0E0,0E0,0E0,0E0,0E0,0E0,0E0,0E0,0E0,0E0,0E0,0E0,0E0,0E0,0E0,0E0,0E0,0E0,0E0,0E0,0E0,0E0,0E0,0E0,0E0,0E0,0E0,0E0,0E0,0E0,0E0,0E0,0E0,0E0],"parents":[2147483647,0,0,1,1,2,2,3,3,4,4,5,5,6,6,8,8,9,9,10,10,11,11,12,12,13,13,14,14,15,15,17,17,18,18,19,19,20,20,21,21,22,22,23,23,24,24,25,25,26,26,27,27,28,28,30,30,31,31,32,32,33,33,34,34,35,35,36,36,37,37,38,38,39,39,41,41,42,42,43,43,44,44,45,45,46,46,47,47,48,48,49,49,50,50,52,52],"right_children":[2,4,6,8,10,12,14,-1,16,18,20,22,24,26,28,30,-1,32,34,36,38,40,42,44,46,48,50,52,54,-1,56,58,60,62,64,66,68,70,72,74,-1,76,78,80,82,84,86,88,90,92,94,-1,96,-1,-1,-1,-1,-1,-1,-1,-1,-1,-1,-1,-1,-1,-1,-1,-1,-1,-1,-1,-1,-1,-1,-1,-1,-1,-1,-1,-1,-1,-1,-1,-1,-1,-1,-1,-1,-1,-1,-1,-1,-1,-1,-1,-1],"split_conditions":[1.5625E4,8.5E3,1.96E4,3.1E3,1.243E4,1.61E4,2.75E4,-4.2281458E2,9.5237756E-1,1.325E4,1.425E4,1.35E4,7.5E-1,1.75E4,1.9125E4,1.0125E4,5.467351E1,1.1022E4,2.2E3,1.3564E4,1.25E4,1E0,7.5E-1,1.9125E4,-1.3301471E-1,1E0,2.25E4,1.4123E4,-5.380052E-1,-3.5129892E2,2.555E1,9.8E3,1.275E4,7.5E-1,2.459E4,1.23E4,7.8188324E0,5E-1,1.818E4,1E4,1.4384871E2,-9.866579E-1,1.28E4,1E0,2.5E-1,-2.678143E-1,2.71E1,1.3025E4,2.25E4,2.363E4,3.34E1,-1.5726874E2,8.028672E0,2.8117368E2,5.01977E2,-2.2035686E2,-1.6345568E-1,-1.8321118E2,-1.3548424E2,-1.0723404E2,-5.5301838E1,-2.1916666E1,-3.4849484E2,-6.727844E1,1.00350945E2,-8.842311E1,-4.895897E1,-3.5922703E1,5.5172124E0,-1.1600606E1,-5.155551E1,1.6907566E1,7.211894E1,-1.698162E2,-2.9736515E1,-7.347532E1,3.432239E1,-1.787483E1,9.063086E1,7.299056E1,-1.5112033E2,1.9037943E2,1.0950361E2,1.0764485E2,-1.8858524E1,1.6350768E2,-5.3560653E0,-9.849418E1,4.186896E1,2.6674844E2,1.14557625E2,1.7736876E2,3.0370267E2,2.7890982E2,2.0050208E2,9.350702E1,2.95892E2],"split_indices":[17,19,17,19,17,19,17,0,9,19,19,19,12,19,19,18,0,18,18,18,18,12,12,19,9,12,17,19,8,0,3,17,19,12,19,19,2,12,19,19,0,9,18,15,12,9,3,19,17,18,5,0,2,0,0,0,0,0,0,0,0,0,0,0,0,0,0,0,0,0,0,0,0,0,0,0,0,0,0,0,0,0,0,0,0,0,0,0,0,0,0,0,0,0,0,0,0],"split_type":[0,0,0,0,0,0,0,0,0,0,0,0,0,0,0,0,0,0,0,0,0,0,0,0,0,0,0,0,0,0,0,0,0,0,0,0,0,0,0,0,0,0,0,0,0,0,0,0,0,0,0,0,0,0,0,0,0,0,0,0,0,0,0,0,0,0,0,0,0,0,0,0,0,0,0,0,0,0,0,0,0,0,0,0,0,0,0,0,0,0,0,0,0,0,0,0,0],"sum_hessian":[5.416E3,3.325E3,2.091E3,1.93E2,3.132E3,1.002E3,1.089E3,1.52E2,4.1E1,1.847E3,1.285E3,4.3E2,5.72E2,9.74E2,1.15E2,3.6E1,5E0,1.337E3,5.1E2,6.58E2,6.27E2,8.4E1,3.46E2,4.03E2,1.69E2,7.7E1,8.97E2,2.7E1,8.8E1,2.1E1,1.5E1,8.09E2,5.28E2,1.2E1,4.98E2,3.54E2,3.04E2,1.08E2,5.19E2,7.9E1,5E0,2.48E2,9.8E1,2.72E2,1.31E2,6.4E1,1.05E2,5.5E1,2.2E1,6.91E2,2.06E2,5E0,2.2E1,1.3E1,7.5E1,1E1,5E0,1.9E2,6.19E2,4.92E2,3.6E1,5E0,7E0,4.86E2,1.2E1,1.26E2,2.28E2,2.18E2,8.6E1,6E1,4.8E1,3.92E2,1.27E2,7E0,7.2E1,5E0,2.43E2,8E0,9E1,2.67E2,5E0,7E0,1.24E2,5.9E1,5E0,1E2,5E0,9E0,4.6E1,1.5E1,7E0,6.8E2,1.1E1,1.5E2,5.6E1,1.2E1,1E1],"tree_param":{"num_deleted":"0","num_feature":"22","num_nodes":"97","size_leaf_vector":"1"}},{"base_weights":[-4.2245415E1,-2.476721E3,3.7774426E3,-1.9665278E3,-1.0572527E4,1.7485818E3,5.7515293E3,-3.0822505E3,-4.089429E2,-1.1682678E4,9.961446E2,-1.1687913E3,2.0883455E3,5.18831E3,1.0505715E4,-3.134653E3,4.2675305E2,1.00710583E3,-1.0868864E3,-8.608416E3,-4.196195E2,1.2429249E2,-5.1025856E1,-2.4715733E2,-5.999703E2,2.8390132E3,1.2546346E3,1.8515256E3,5.481414E3,3.3132341E3,1.2745088E4,-3.9931665E3,-2.2981267E3,2.8513333E2,8.920569E2,-2.4549668E3,-3.9010913E2,-1.5351465E2,-3.321203E2,6.4890967E2,-1.5725648E3,2.5962205E3,3.6556912E3,5.058859E2,1.8640042E3,-7.004147E-1,3.6351792E3,4.954784E3,7.1380547E3,-1.7430919E3,7.1490312E3,2.0219429E2,4.641928E2,-3.2346323E2,-1.3669572E2,-9.1079834E1,-4.3068092E1,9.74951E0,6.211702E1,-5.9175E1,-1.4216191E2,8.540183E0,-2.0938156E1,6.9903E1,4.6260204E0,-9.080988E1,2.7730276E1,1.4437617E2,8.416205E1,1.6901328E2,1.0221928E2,-1.5075838E1,3.532841E1,3.7975655E1,9.888995E1,-3.337487E1,1.3141904E2,1.5778024E2,-3.8739742E1,1.747929E2,-7.6373806E0,2.5540903E2,7.353324E1,-2.1983075E2,7.121005E1,1.552093E2,3.6056232E2],"categories":[3,32,39,52,59,0,2,3,4,7,12,14,19,21,30,31,36,43,45,48,55,60,61,62,3,32,59,0,3,4,5,6,8,9,10,11,13,14,15,16,17,18,20,21,22,23,24,25,26,27,28,29,30,31,32,33,34,35,37,38,39,40,41,42,43,44,45,46,47,49,50,51,52,53,54,55,56,57,59,61,62,0,1,2,3,4,5,6,7,8,9,10,11,12,13,14,15,16,17,18,19,20,21,22,23,25,26,27,28,29,30,31,32,33,34,35,36,37,38,39,40,41,42,43,44,45,46,47,48,49,50,51,52,53,54,55,56,57,58,59,60,61,62,0,1,2,3,4,5,6,7,8,9,10,12,13,14,15,16,18,19,20,21,22,23,24,25,26,27,28,29,30,31,32,33,34,35,36,37,38,39,40,41,42,43,44,46,47,48,49,50,55,60,2,19,30,36,61,12,14,21,31,43,48,55,60,0,3,4,5,6,7,8,9,0,1,2,3,4,5,6,7,8,9,10,11,12,13,14,15,16,17,18,19],"categories_nodes":[1,8,9,12,17,24,35,36,47,49],"categories_segments":[0,5,24,27,81,143,193,198,206,214],"categories_sizes":[5,19,3,54,62,50,5,8,8,20],"default_left":[0,1,0,0,0,0,0,0,1,1,0,0,1,0,0,0,0,1,0,0,0,0,0,0,1,0,0,0,0,0,0,0,0,0,0,1,1,0,0,0,0,0,0,0,0,0,0,1,0,1,0,0,0,0,0,0,0,0,0,0,0,0,0,0,0,0,0,0,0,0,0,0,0,0,0,0,0,0,0,0,0,0,0,0,0,0,0],"id":2,"left_children":[1,3,5,7,9,11,13,15,17,19,21,23,25,27,29,31,-1,33,35,37,-1,-1,-1,-1,39,41,43,45,47,49,51,53,55,-1,57,59,61,-1,-1,63,65,67,69,71,73,75,77,79,81,83,85,-1,-1,-1,-1,-1,-1,-1,-1,-1,-1,-1,-1,-1,-1,-1,-1,-1,-1,-1,-1,-1,-1,-1,-1,-1,-1,-1,-1,-1,-1,-1,-1,-1,-1,-1,-1],"loss_changes":[5.0298036E10,1.361367E10,8.417749E9,5.4019E9,2.528258E9,1.03502285E9,2.7739505E9,1.5073649E9,1.249163E9,1.335296E7,1.23764904E8,3.6068538E8,5.782518E8,9.202565E8,1.7325476E9,1.2836065E9,0E0,3.3531795E8,8.369441E8,1.7519872E7,0E0,0E0,0E0,0E0,1.2481813E8,8.282291E7,2.0139494E8,2.6265066E8,7.1338394E8,5.714513E8,1.898158E8,3.5471155E8,2.9345024E8,0E0,2.2481174E8,3.538012E8,7.7358E7,0E0,0E0,3.1304908E7,1.4205504E8,9.715712E7,7.242675E7,9.567715E7,1.7851578E8,1.5030058E8,1.7511328E8,1.3814477E8,1.4435328E8,2.50589E8,7.268109E7,0E0,0E0,0E0,0E0,0E0,0E0,0E0,0E0,0E0,0E0,0E0,0E0,0E0,0E0,0E0,0E0,0E0,0E0,0E0,0E0,0E0,0E0,0E0,0E0,0E0,0E0,0E0,0E0,0E0,0E0,0E0,0E0,0E0,0E0,0E0,0E0],"parents":[2147483647,0,0,1,1,2,2,3,3,4,4,5,5,6,6,7,7,8,8,9,9,10,10,11,11,12,12,13,13,14,14,15,15,17,17,18,18,19,19,24,24,25,25,26,26,27,27,28,28,29,29,30,30,31,31,32,32,34,34,35,35,36,36,39,39,40,40,41,41,42,42,43,43,44,44,45,45,46,46,47,47,48,48,49,49,50,50],"right_children":[2,4,6,8,10,12,14,16,18,20,22,24,26,28,30,32,-1,34,36,38,-1,-1,-1,-1,40,42,44,46,48,50,52,54,56,-1,58,60,62,-1,-1,64,66,68,70,72,74,76,78,80,82,84,86,-1,-1,-1,-1,-1,-1,-1,-1,-1,-1,-1,-1,-1,-1,-1,-1,-1,-1,-1,-1,-1,-1,-1,-1,-1,-1,-1,-1,-1,-1,-1,-1,-1,-1,-1,-1],"split_conditions":[1.55E4,1E-45,1.96E4,1.4E4,2.22E3,1.3872E4,2.75E4,1.5E4,1E-45,1E-45,6.5989633E0,1E4,1E-45,1.61E4,1.9125E4,1.1E4,4.2675305E2,1E-45,1.25E4,7.4336667E0,-4.196195E2,1.2429249E2,-5.1025856E1,-2.4715733E2,1E-45,6.6312265E-1,3.872228E-2,5.6806475E-1,2.25E4,7.6814065E0,-8.498171E-1,6.2345E3,1.38E4,2.8513333E2,1.675E4,1E-45,1E-45,-1.5351465E2,-3.321203E2,2.235E1,7.961254E0,6.7658076E0,1E2,1.5385E4,1.683E4,2.4E4,6E-1,1E-45,2.459E4,1E-45,9.2E3,2.0219429E2,4.641928E2,-3.2346323E2,-1.3669572E2,-9.1079834E1,-4.3068092E1,9.74951E0,6.211702E1,-5.9175E1,-1.4216191E2,8.540183E0,-2.0938156E1,6.9903E1,4.6260204E0,-9.080988E1,2.7730276E1,1.4437617E2,8.416205E1,1.6901328E2,1.0221928E2,-1.5075838E1,3.532841E1,3.7975655E1,9.888995E1,-3.337487E1,1.3141904E2,1.5778024E2,-3.8739742E1,1.747929E2,-7.6373806E0,2.5540903E2,7.353324E1,-2.1983075E2,7.121005E1,1.552093E2,3.6056232E2],"split_indices":[17,0,17,19,20,19,17,20,0,0,2,19,0,19,19,17,0,0,17,2,0,0,0,0,0,10,9,11,17,2,8,19,17,0,19,0,0,0,0,3,2,2,20,19,17,17,4,0,19,0,20,0,0,0,0,0,0,0,0,0,0,0,0,0,0,0,0,0,0,0,0,0,0,0,0,0,0,0,0,0,0,0,0,0,0,0,0],"split_type":[0,1,0,0,0,0,0,0,1,1,0,0,1,0,0,0,0,1,0,0,0,0,0,0,1,0,0,0,0,0,0,0,0,0,0,1,1,0,0,0,0,0,0,0,0,0,0,1,0,1,0,0,0,0,0,0,0,0,0,0,0,0,0,0,0,0,0,0,0,0,0,0,0,0,0,0,0,0,0,0,0,0,0,0,0,0,0],"sum_hessian":[5.406E3,3.302E3,2.104E3,3.108E3,1.94E2,1.039E3,1.065E3,1.81E3,1.298E3,1.77E2,1.7E1,1.08E2,9.31E2,9.55E2,1.1E2,1.805E3,5E0,4.2E2,8.78E2,2E1,1.57E2,8E0,9E0,8E0,1E2,4.88E2,4.43E2,7.8E1,8.77E2,2.7E1,8.3E1,8.88E2,9.17E2,5E0,4.15E2,2.95E2,5.83E2,5E0,1.5E1,4.4E1,5.6E1,3.81E2,1.07E2,2E2,2.43E2,3.9E1,3.9E1,6.7E2,2.07E2,1.2E1,1.5E1,7E0,7.6E1,1.2E1,8.76E2,7.12E2,2.05E2,2.46E2,1.69E2,2.02E2,9.3E1,1.44E2,4.39E2,1.1E1,3.3E1,3.9E1,1.7E1,3.9E1,3.42E2,3.8E1,6.9E1,7E1,1.3E2,1.36E2,1.07E2,3.2E1,7E0,3.3E1,6E0,6.65E2,5E0,2E2,7E0,5E0,7E0,1E1,5E0],"tree_param":{"num_deleted":"0","num_feature":"22","num_nodes":"87","size_leaf_vector":"1"}},{"base_weights":[3.6282555E1,-2.3525464E3,3.8402659E3,-1.0619246E4,-1.8486232E3,1.849135E3,5.692186E3,-1.1255608E4,-9.780579E2,-2.9329583E3,-3.0238632E2,7.5005383E2,2.6817559E3,5.030482E3,1.0928689E4,-4.062712E2,-3.0726306E2,6.670474E1,-1.05378426E2,-3.4165493E3,-1.6569984E3,-1.0728046E3,7.553952E2,-2.2697401E2,8.8996747E2,2.406112E3,3.224179E3,4.550101E3,6.634214E3,2.672376E3,1.2732043E4,-3.89768E3,-2.6936057E3,-1.7373501E3,1.7453185E2,-1.6290792E3,-4.4137698E2,3.4224268E2,1.6683464E3,-9.399261E2,1.1950511E3,2.1250283E3,3.7642888E3,4.342688E3,2.8714988E3,2.7833943E3,5.0271475E3,1.6052642E3,6.965101E3,-2.33775E3,6.643338E3,9.83578E3,4.933623E2,-1.6924611E2,-1.260159E2,-9.7160416E1,1.6509474E2,-1.93577E2,-5.6998142E1,-7.948906E1,-4.5610046E1,-3.2150585E1,5.510107E0,-1.7114714E1,1.9835361E1,4.2492172E1,1.7824606E2,-1.4958452E1,-1.8399597E2,2.0040718E2,3.8834953E1,3.1461874E1,8.041579E1,1.7171701E2,8.447258E1,1.9410791E2,8.738978E1,8.757254E1,1.17138336E2,-1.234751E1,1.26606186E2,1.724625E2,3.2814066E2,1.3771631E2,-3.526227E1,2.258942E2,3.2260107E2,-2.1391223E2,6.915101E1,1.329804E2,2.8554944E2,1.8948247E2,3.653799E2],"categories":[],"categories_nodes":[],"categories_segments":[],"categories_sizes":[],"default_left":[0,0,0,0,0,0,0,0,0,0,0,0,0,0,0,0,0,0,0,0,0,0,0,0,0,0,0,0,0,0,0,0,0,0,0,0,0,0,0,0,0,0,0,0,0,0,0,0,0,0,0,0,0,0,0,0,0,0,0,0,0,0,0,0,0,0,0,0,0,0,0,0,0,0,0,0,0,0,0,0,0,0,0,0,0,0,0,0,0,0,0,0,0],"id":3,"left_children":[1,3,5,7,9,11,13,15,17,19,21,23,25,27,29,-1,-1,-1,-1,31,33,35,37,-1,39,41,43,45,47,49,51,53,55,57,-1,59,61,63,65,67,69,71,73,75,77,79,81,83,85,87,89,91,-1,-1,-1,-1,-1,-1,-1,-1,-1,-1,-1,-1,-1,-1,-1,-1,-1,-1,-1,-1,-1,-1,-1,-1,-1,-1,-1,-1,-1,-1,-1,-1,-1,-1,-1,-1,-1,-1,-1,-1,-1],"loss_changes":[4.938812E10,1.3878012E10,7.7148774E9,1.1583959E9,5.277567E9,9.235392E8,3.67881E9,3.690496E6,8.774807E7,1.1333448E9,1.06022246E9,4.5254086E8,7.440922E7,6.993121E8,1.7430907E9,0E0,0E0,0E0,0E0,4.50517E8,2.860471E8,2.6323469E8,2.0603104E8,0E0,2.4257866E8,1.3593293E8,5.604749E7,6.098463E8,3.4847846E8,4.9082906E8,1.8116096E8,1.9732275E8,3.4971418E8,1.9559475E8,0E0,7.916058E7,1.0151826E8,7.122931E7,2.5596349E8,1.3492272E8,1.3396528E8,6.5561344E7,8.172742E7,7.362099E7,1.3513856E7,4.269074E8,1.8526413E8,1.0028565E8,1.4724813E8,2.0532467E8,1.1675136E7,1.2653056E7,0E0,0E0,0E0,0E0,0E0,0E0,0E0,0E0,0E0,0E0,0E0,0E0,0E0,0E0,0E0,0E0,0E0,0E0,0E0,0E0,0E0,0E0,0E0,0E0,0E0,0E0,0E0,0E0,0E0,0E0,0E0,0E0,0E0,0E0,0E0,0E0,0E0,0E0,0E0,0E0,0E0],"parents":[2147483647,0,0,1,1,2,2,3,3,4,4,5,5,6,6,7,7,8,8,9,9,10,10,11,11,12,12,13,13,14,14,19,19,20,20,21,21,22,22,24,24,25,25,26,26,27,27,28,28,29,29,30,30,31,31,32,32,33,33,35,35,36,36,37,37,38,38,39,39,40,40,41,41,42,42,43,43,44,44,45,45,46,46,47,47,48,48,49,49,50,50,51,51],"right_children":[2,4,6,8,10,12,14,16,18,20,22,24,26,28,30,-1,-1,-1,-1,32,34,36,38,-1,40,42,44,46,48,50,52,54,56,58,-1,60,62,64,66,68,70,72,74,76,78,80,82,84,86,88,90,92,-1,-1,-1,-1,-1,-1,-1,-1,-1,-1,-1,-1,-1,-1,-1,-1,-1,-1,-1,-1,-1,-1,-1,-1,-1,-1,-1,-1,-1,-1,-1,-1,-1,-1,-1,-1,-1,-1,-1,-1,-1],"split_conditions":[1.5625E4,8.5E3,1.96E4,2E3,1.25E4,1.61E4,2.75E4,3.7E3,4.2E3,1.325E4,1.4718E4,1E4,1.9E4,2.25E4,1.9125E4,-4.062712E2,-3.0726306E2,6.670474E1,-1.05378426E2,1.1022E4,1.3E4,1.3564E4,1.75E4,-2.2697401E2,1.3302E4,8.290878E0,1.5E0,1.9E4,1.5075E4,7.6814065E0,1.4154029E-1,9.8E3,1.3E4,2.2E3,1.7453185E2,1.23E4,1E4,1.2961E4,1E0,1.8E1,3.7917368E0,2.235E1,1.8E0,2.22E3,1.85E4,1.61E4,1.4E4,5E-1,2.363E4,1.4123E4,2.235E1,-8.543222E-1,4.933623E2,-1.6924611E2,-1.260159E2,-9.7160416E1,1.6509474E2,-1.93577E2,-5.6998142E1,-7.948906E1,-4.5610046E1,-3.2150585E1,5.510107E0,-1.7114714E1,1.9835361E1,4.2492172E1,1.7824606E2,-1.4958452E1,-1.8399597E2,2.0040718E2,3.8834953E1,3.1461874E1,8.041579E1,1.7171701E2,8.447258E1,1.9410791E2,8.738978E1,8.757254E1,1.17138336E2,-1.234751E1,1.26606186E2,1.724625E2,3.2814066E2,1.3771631E2,-3.526227E1,2.258942E2,3.2260107E2,-2.1391223E2,6.915101E1,1.329804E2,2.8554944E2,1.8948247E2,3.653799E2],"split_indices":[17,19,17,20,17,19,17,19,17,19,19,19,18,17,19,0,0,0,0,18,20,18,19,0,18,2,5,18,19,2,9,17,20,18,0,19,20,18,6,4,2,3,4,20,17,19,20,4,18,19,3,8,0,0,0,0,0,0,0,0,0,0,0,0,0,0,0,0,0,0,0,0,0,0,0,0,0,0,0,0,0,0,0,0,0,0,0,0,0,0,0,0,0],"split_type":[0,0,0,0,0,0,0,0,0,0,0,0,0,0,0,0,0,0,0,0,0,0,0,0,0,0,0,0,0,0,0,0,0,0,0,0,0,0,0,0,0,0,0,0,0,0,0,0,0,0,0,0,0,0,0,0,0,0,0,0,0,0,0,0,0,0,0,0,0,0,0,0,0,0,0,0,0,0,0,0,0,0,0,0,0,0,0,0,0,0,0,0,0],"sum_hessian":[5.432E3,3.337E3,2.095E3,1.9E2,3.147E3,1.011E3,1.084E3,1.78E2,1.2E1,1.849E3,1.298E3,4.37E2,5.74E2,9.65E2,1.19E2,1.51E2,2.7E1,5E0,7E0,1.339E3,5.1E2,7.51E2,5.47E2,7E0,4.3E2,3.86E2,1.88E2,7.47E2,2.18E2,2.2E1,9.7E1,8E2,5.39E2,5.05E2,5E0,3.98E2,3.53E2,3.78E2,1.69E2,6.1E1,3.69E2,3.23E2,6.3E1,4.1E1,1.47E2,1.61E2,5.86E2,1.4E1,2.04E2,1E1,1.2E1,3.5E1,6.2E1,1.87E2,6.13E2,5.34E2,5E0,1.2E1,4.93E2,1.31E2,2.67E2,1.96E2,1.57E2,8E1,2.98E2,1.51E2,1.8E1,5.6E1,5E0,5E0,3.64E2,4.1E1,2.82E2,3.2E1,3.1E1,2.3E1,1.8E1,8.8E1,5.9E1,3.4E1,1.27E2,5.76E2,1E1,7E0,7E0,1.71E2,3.3E1,5E0,5E0,6E0,6E0,6E0,2.9E1],"tree_param":{"num_deleted":"0","num_feature":"22","num_nodes":"93","size_leaf_vector":"1"}},{"base_weights":[2.722374E0,-2.679035E3,3.0837869E3,-2.1686035E3,-1.0028233E4,1.353921E3,5.3766797E3,-3.0254214E3,-6.426714E2,-3.843613E2,8.52019E2,3.6524994E2,2.6149202E3,4.812935E3,1.0173238E4,-3.0809421E3,3.6287637E2,1.3507721E3,-1.0870868E3,1.3664738E2,-9.842572E2,-2.7962875E2,4.6383823E2,2.8869724E3,1.8718049E3,2.073954E3,5.0353013E3,2.0866423E3,1.2216386E4,-3.6660222E3,-2.3010454E3,8.351851E2,4.6981377E3,-2.1086724E3,-3.5326147E2,-1.01304E1,-5.0817295E1,8.180213E2,-9.876695E2,2.7645037E3,4.368427E3,3.725069E2,2.4914402E3,-2.762388E2,4.733734E3,4.5952095E3,6.5116987E3,-1.7809796E2,4.8263076E3,2.4906088E2,4.5850092E2,-3.1302383E2,-1.25162384E2,-9.244129E1,-6.3167416E1,1.9303015E1,1.7981322E2,1.1443997E2,2.4820206E2,-5.2062534E1,-1.2716753E2,3.5587982E1,-1.9169176E1,1.8574538E2,2.6964035E1,-5.868945E1,2.1456755E1,1.0097562E2,3.8789165E1,2.3143175E2,1.2201298E2,4.4750107E1,-1.058604E2,1.4569068E1,9.9501915E1,8.033841E1,-4.6080997E1,2.276122E2,6.743467E0,1.6198149E2,1.4646764E0,1.7466046E0,2.3599394E2,2.959835E2,8.897318E1],"categories":[3,32,39,59,0,2,5,12,14,18,19,21,26,30,31,36,43,45,48,50,55,60,61,62,0,3,4,5,6,7,8,9,10,11,12,13,14,15,16,17,18,20,21,22,23,24,25,27,28,29,30,31,32,33,34,35,37,38,39,40,41,42,43,44,45,46,47,48,49,50,51,52,53,54,56,57,59,60,61,62,0,1,2,3,4,6,7,8,9,10,13,14,15,16,20,21,22,23,24,25,26,27,28,29,30,31,32,33,34,35,36,37,39,40,41,42,43,44,46,47,48,51,52,53,54,56,57,58,60,0,2,3,4,5,6,7,8,9,10,11,12,13,14,15,16,17,18,19,20,21,22,23,24,2,19,30,36,61,0,1,3,4,5,6,7,8,9,10,11,12,13,14,15,16,17,19,20,21,22,23,24,25,26,27,28,29,30,31,32,33,34,35,36,37,38,39,40,41,42,43,44,46,47,48,49,50,51,52,53,54,55,56,57,58,59,60,61,62,0,1,2,3,4,5,6,7,8,9,10,11,12,13,14,15,16,17,18,19,20,21,22,23,24,25,26,27,28,29,30,31,32,33,34,35,36,37,38,39,40,41,42,43,44,0,3,4,5,6,7,8,9,10,11,12,13,14,15,16,17,18,20,21,22,23,24],"categories_nodes":[1,8,12,22,32,33,34,43,45],"categories_segments":[0,4,24,80,129,153,158,218,263],"categories_sizes":[4,20,56,49,24,5,60,45,22],"default_left":[0,1,0,0,0,0,0,0,1,0,0,0,1,0,0,0,0,0,0,0,0,0,1,0,0,0,0,0,0,0,0,0,1,1,1,0,0,0,0,0,0,0,0,1,0,1,0,0,0,0,0,0,0,0,0,0,0,0,0,0,0,0,0,0,0,0,0,0,0,0,0,0,0,0,0,0,0,0,0,0,0,0,0,0,0],"id":4,"left_children":[1,3,5,7,9,11,13,15,17,-1,19,21,23,25,27,29,-1,31,33,-1,35,-1,37,39,41,43,45,47,49,51,53,55,57,59,61,-1,-1,63,65,67,69,71,73,75,77,79,81,-1,83,-1,-1,-1,-1,-1,-1,-1,-1,-1,-1,-1,-1,-1,-1,-1,-1,-1,-1,-1,-1,-1,-1,-1,-1,-1,-1,-1,-1,-1,-1,-1,-1,-1,-1,-1,-1],"loss_changes":[4.4717556E10,1.0821655E10,9.97845E9,3.5369943E9,1.9592581E9,1.7907169E9,2.853671E9,1.3369528E9,8.664146E8,0E0,9.824142E7,6.7067136E8,1.1956224E8,5.760328E8,1.820499E9,7.756063E8,0E0,3.021794E8,5.9749024E8,0E0,3.106293E6,0E0,4.1223443E8,6.525235E7,1.5979226E8,4.7391206E8,5.382656E8,5.1844742E8,2.635346E8,4.1940173E8,1.1851776E8,1.8674902E8,4.5558176E7,3.0774746E8,1.2510153E8,0E0,0E0,1.314257E8,1.752915E8,8.073242E7,2.9768768E7,1.6739518E8,8.757203E7,1.1556279E8,2.833724E8,1.0383565E8,3.0174157E8,0E0,1.2116438E8,0E0,0E0,0E0,0E0,0E0,0E0,0E0,0E0,0E0,0E0,0E0,0E0,0E0,0E0,0E0,0E0,0E0,0E0,0E0,0E0,0E0,0E0,0E0,0E0,0E0,0E0,0E0,0E0,0E0,0E0,0E0,0E0,0E0,0E0,0E0,0E0],"parents":[2147483647,0,0,1,1,2,2,3,3,4,4,5,5,6,6,7,7,8,8,10,10,11,11,12,12,13,13,14,14,15,15,17,17,18,18,20,20,22,22,23,23,24,24,25,25,26,26,27,27,28,28,29,29,30,30,31,31,32,32,33,33,34,34,37,37,38,38,39,39,40,40,41,41,42,42,43,43,44,44,45,45,46,46,48,48],"right_children":[2,4,6,8,10,12,14,16,18,-1,20,22,24,26,28,30,-1,32,34,-1,36,-1,38,40,42,44,46,48,50,52,54,56,58,60,62,-1,-1,64,66,68,70,72,74,76,78,80,82,-1,84,-1,-1,-1,-1,-1,-1,-1,-1,-1,-1,-1,-1,-1,-1,-1,-1,-1,-1,-1,-1,-1,-1,-1,-1,-1,-1,-1,-1,-1,-1,-1,-1,-1,-1,-1,-1],"split_conditions":[1.4996E4,1E-45,1.96E4,1.4E4,2.22E3,1.6285E4,2.75E4,1.5E4,1E-45,-3.843613E2,5.909893E0,5.465E3,1E-45,1.75E4,1.9125E4,1.1108E4,3.6287637E2,1.99E4,1.243E4,1.3664738E2,1.9245158E-1,-2.7962875E2,1E-45,9.6684784E-1,-2.344914E-1,1.8153E4,2.25E4,1.3025E4,-5.380052E-1,6.2345E3,1.2257E4,1.1126E4,1E-45,1E-45,1E-45,-1.01304E1,-5.0817295E1,-9.995463E-1,7.853346E0,8.23923E-1,1.859E4,2.76E1,1.2541E4,1E-45,2.0466E4,1E-45,-1.1161091E2,-1.7809796E2,2.9436E4,2.4906088E2,4.5850092E2,-3.1302383E2,-1.25162384E2,-9.244129E1,-6.3167416E1,1.9303015E1,1.7981322E2,1.1443997E2,2.4820206E2,-5.2062534E1,-1.2716753E2,3.5587982E1,-1.9169176E1,1.8574538E2,2.6964035E1,-5.868945E1,2.1456755E1,1.0097562E2,3.8789165E1,2.3143175E2,1.2201298E2,4.4750107E1,-1.058604E2,1.4569068E1,9.9501915E1,8.033841E1,-4.6080997E1,2.276122E2,6.743467E0,1.6198149E2,1.4646764E0,1.7466046E0,2.3599394E2,2.959835E2,8.897318E1],"split_indices":[17,0,17,19,20,19,17,20,0,0,2,19,0,19,19,17,0,18,17,0,9,0,0,9,9,18,17,19,8,19,18,20,0,0,0,0,0,8,2,9,19,3,18,0,18,0,21,0,17,0,0,0,0,0,0,0,0,0,0,0,0,0,0,0,0,0,0,0,0,0,0,0,0,0,0,0,0,0,0,0,0,0,0,0,0],"split_type":[0,1,0,0,0,0,0,0,1,0,0,0,1,0,0,0,0,0,0,0,0,0,1,0,0,0,0,0,0,0,0,0,1,1,1,0,0,0,0,0,0,0,0,1,0,1,0,0,0,0,0,0,0,0,0,0,0,0,0,0,0,0,0,0,0,0,0,0,0,0,0,0,0,0,0,0,0,0,0,0,0,0,0,0,0],"sum_hessian":[5.409E3,2.892E3,2.517E3,2.706E3,1.86E2,1.436E3,1.081E3,1.732E3,9.74E2,1.71E2,1.5E1,8.06E2,6.3E2,9.7E2,1.11E2,1.726E3,6E0,1.77E2,7.97E2,5E0,1E1,8E0,7.98E2,4.58E2,1.72E2,7.4E1,8.96E2,2.3E1,8.8E1,9.83E2,7.43E2,1.55E2,2.2E1,3.32E2,4.65E2,5E0,5E0,6.42E2,1.56E2,4.27E2,3.1E1,5.1E1,1.21E2,4E1,3.4E1,6.95E2,2.01E2,6E0,1.7E1,1.5E1,7.3E1,1.4E1,9.69E2,4.37E2,3.06E2,1.47E2,8E0,1.6E1,6E0,2.38E2,9.4E1,5.7E1,4.08E2,5E0,6.37E2,1.09E2,4.7E1,3.97E2,3E1,6E0,2.5E1,4.1E1,1E1,1.8E1,1.03E2,1.1E1,2.9E1,2.4E1,1E1,6.9E2,5E0,7E0,1.94E2,5E0,1.2E1],"tree_param":{"num_deleted":"0","num_feature":"22","num_nodes":"85","size_leaf_vector":"1"}},{"base_weights":[1.3122251E0,-1.9000566E3,4.0338728E3,-9.439519E3,-1.4803236E3,3.25408E3,7.3857676E3,-3.677345E2,2.2548298E3,-2.728252E3,-4.658017E1,2.0150658E3,4.258246E3,-1.4096891E3,7.904129E3,2.8747363E2,-1.1142666E3,-3.1972136E3,-1.4583807E3,-8.9810614E2,8.187069E2,-1.8071527E3,2.3668882E3,4.0433635E3,7.064867E3,-4.6258545E3,9.471475E1,6.668173E3,1.1537795E4,-8.2543015E1,2.0242687E1,-3.6355464E3,-2.490529E3,-1.550908E3,2.1109264E2,-1.4443069E3,-3.5786478E2,6.208757E2,2.253829E3,-3.3012954E3,7.1650073E2,1.1893796E3,2.8587878E3,2.6970886E3,4.474551E3,6.172392E3,3.238022E2,-2.219863E2,-6.4460304E1,2.8960413E1,6.89578E3,6.2819634E3,1.2881091E4,-1.5816061E2,-1.1777258E2,-8.9920494E1,1.5416309E2,-1.2311609E2,-4.9050236E1,-6.0550518E1,-2.2415934E1,-2.9228634E1,4.108302E0,1.4148648E1,4.8580154E1,-6.975904E1,9.333974E1,-1.5856227E2,-4.7469955E1,-3.4095037E0,9.160418E1,1.430023E1,8.906074E1,8.065879E1,1.2118701E2,1.0454631E2,6.51686E1,1.2218219E2,1.5953894E2,2.2529391E2,1.1275508E2,2.4662044E2,3.890023E1,9.581583E1,2.8288116E2,4.7234976E2,2.0722087E2],"categories":[],"categories_nodes":[],"categories_segments":[],"categories_sizes":[],"default_left":[0,0,0,0,0,0,0,0,0,0,0,0,0,0,0,0,0,0,0,0,0,0,0,0,0,0,0,0,0,0,0,0,0,0,0,0,0,0,0,0,0,0,0,0,0,0,0,0,0,0,0,0,0,0,0,0,0,0,0,0,0,0,0,0,0,0,0,0,0,0,0,0,0,0,0,0,0,0,0,0,0,0,0,0,0,0,0],"id":5,"left_children":[1,3,5,7,9,11,13,-1,15,17,19,21,23,25,27,-1,29,31,33,35,37,39,41,43,45,47,-1,49,51,-1,-1,53,55,57,-1,59,61,63,65,67,69,71,73,75,77,79,-1,-1,-1,-1,81,83,85,-1,-1,-1,-1,-1,-1,-1,-1,-1,-1,-1,-1,-1,-1,-1,-1,-1,-1,-1,-1,-1,-1,-1,-1,-1,-1,-1,-1,-1,-1,-1,-1,-1,-1],"loss_changes":[4.1672233E10,1.1667348E10,4.5158523E9,2.462896E9,6.262936E9,1.7482598E9,1.5098593E9,0E0,3.65049E8,1.1075236E9,1.2024788E9,8.623442E8,4.278651E8,2.7690237E8,1.2745748E9,0E0,2.8368776E7,4.093993E8,3.6572365E8,2.41928E8,2.2772755E8,2.0905141E8,3.3287194E8,4.0478925E8,1.874816E7,3.7439216E7,0E0,3.0318182E8,4.1872077E8,0E0,0E0,1.7786573E8,3.029604E8,1.4032346E8,0E0,9.215661E7,9.438475E7,1.1772902E8,1.789954E8,7.325584E7,3.364445E7,1.8308782E8,1.2538394E8,3.536397E7,2.1371904E7,2.073856E6,0E0,0E0,0E0,0E0,1.845842E8,8.486048E7,1.3468672E8,0E0,0E0,0E0,0E0,0E0,0E0,0E0,0E0,0E0,0E0,0E0,0E0,0E0,0E0,0E0,0E0,0E0,0E0,0E0,0E0,0E0,0E0,0E0,0E0,0E0,0E0,0E0,0E0,0E0,0E0,0E0,0E0,0E0,0E0],"parents":[2147483647,0,0,1,1,2,2,3,3,4,4,5,5,6,6,8,8,9,9,10,10,11,11,12,12,13,13,14,14,16,16,17,17,18,18,19,19,20,20,21,21,22,22,23,23,24,24,25,25,27,27,28,28,31,31,32,32,33,33,35,35,36,36,37,37,38,38,39,39,40,40,41,41,42,42,43,43,44,44,45,45,50,50,51,51,52,52],"right_children":[2,4,6,8,10,12,14,-1,16,18,20,22,24,26,28,-1,30,32,34,36,38,40,42,44,46,48,-1,50,52,-1,-1,54,56,58,-1,60,62,64,66,68,70,72,74,76,78,80,-1,-1,-1,-1,82,84,86,-1,-1,-1,-1,-1,-1,-1,-1,-1,-1,-1,-1,-1,-1,-1,-1,-1,-1,-1,-1,-1,-1,-1,-1,-1,-1,-1,-1,-1,-1,-1,-1,-1,-1],"split_conditions":[1.683E4,8.5E3,2.25E4,2E3,1.25E4,1.9E4,1.5075E4,-3.677345E2,5.0709987E0,1.325E4,1.4718E4,1.3025E4,1E0,1.7393354E-15,1E0,2.8747363E2,5.673323E0,1.1022E4,1.3E4,1.3564E4,1.8153E4,3.17E3,1.604E4,1.96E4,2.0466E4,7.6285176E0,9.471475E1,-1.1161091E2,2.0466E4,-8.2543015E1,2.0242687E1,9.8E3,1.3E4,1.299283E0,2.1109264E2,7.5E-1,1.4E4,1.818E4,-1.1161091E2,1.5E0,8.5207754E-1,8.2E3,1.9E4,4.5E3,1.859E4,9.880227E-1,3.238022E2,-2.219863E2,-6.4460304E1,2.8960413E1,2.34E4,8.660254E-1,8.879194E0,-1.5816061E2,-1.1777258E2,-8.9920494E1,1.5416309E2,-1.2311609E2,-4.9050236E1,-6.0550518E1,-2.2415934E1,-2.9228634E1,4.108302E0,1.4148648E1,4.8580154E1,-6.975904E1,9.333974E1,-1.5856227E2,-4.7469955E1,-3.4095037E0,9.160418E1,1.430023E1,8.906074E1,8.065879E1,1.2118701E2,1.0454631E2,6.51686E1,1.2218219E2,1.5953894E2,2.2529391E2,1.1275508E2,2.4662044E2,3.890023E1,9.581583E1,2.8288116E2,4.7234976E2,2.0722087E2],"split_indices":[17,19,17,20,17,18,19,0,2,19,19,19,12,21,12,0,1,18,20,18,18,20,19,17,18,1,0,21,18,0,0,17,20,2,0,12,19,19,21,4,9,20,17,20,19,9,0,0,0,0,19,6,1,0,0,0,0,0,0,0,0,0,0,0,0,0,0,0,0,0,0,0,0,0,0,0,0,0,0,0,0,0,0,0,0,0,0],"split_type":[0,0,0,0,0,0,0,0,0,0,0,0,0,0,0,0,0,0,0,0,0,0,0,0,0,0,0,0,0,0,0,0,0,0,0,0,0,0,0,0,0,0,0,0,0,0,0,0,0,0,0,0,0,0,0,0,0,0,0,0,0,0,0,0,0,0,0,0,0,0,0,0,0,0,0,0,0,0,0,0,0,0,0,0,0,0,0],"sum_hessian":[5.432E3,3.692E3,1.74E3,1.93E2,3.499E3,1.414E3,3.26E2,1.77E2,1.6E1,1.87E3,1.629E3,6.35E2,7.79E2,1.8E1,3.08E2,5E0,1.1E1,1.364E3,5.06E2,8.21E2,8.08E2,5.3E1,5.82E2,7.27E2,5.2E1,1E1,8E0,2.33E2,7.5E1,6E0,5E0,8.38E2,5.26E2,5.01E2,5E0,4.07E2,4.14E2,7.12E2,9.6E1,3.3E1,2E1,1.73E2,4.09E2,1.79E2,5.48E2,4.1E1,1.1E1,5E0,5E0,9E0,2.24E2,1.7E1,5.8E1,1.91E2,6.47E2,5.21E2,5E0,3.3E1,4.68E2,2.99E2,1.08E2,2.06E2,2.08E2,5.57E2,1.55E2,8E0,8.8E1,1.9E1,1.4E1,1.5E1,5E0,1.11E2,6.2E1,2.17E2,1.92E2,1.3E2,4.9E1,4.8E1,5E2,3.6E1,5E0,2.18E2,6E0,7E0,1E1,5.2E1,6E0],"tree_param":{"num_deleted":"0","num_feature":"22","num_nodes":"87","size_leaf_vector":"1"}},{"base_weights":[-1.9913256E1,-2.5424507E3,2.6056155E3,-1.9905942E3,-9.370403E3,4.0782363E3,9.6788513E2,-2.6498777E3,-7.8922833E2,-2.241135E1,-9.628147E3,3.725309E3,1.125807E4,5.694867E2,6.1441963E3,-2.7531038E3,3.3517432E3,4.5775063E1,-1.2819938E3,-3.568761E2,-7.791353E3,2.3387224E3,4.6201343E3,8.301219E3,4.8252036E2,7.0562646E2,-1.9811868E3,3.4805963E2,4.7613555E3,-3.356122E3,-2.294987E3,1.8344023E2,3.043571E2,-8.0999023E2,8.7137714E2,-1.3856422E3,3.5028516E3,-3.00274E2,-4.7846484E3,-1.206333E3,2.6914497E3,4.0874258E3,6.0256333E3,3.9129492E2,5.6576987E3,3.6367303E2,1.7035306E3,-6.6526575E2,-4.4359634E3,3.5027947E3,6.3433955E3,-1.2956982E2,-5.090526E1,-5.406125E1,-8.769477E1,-6.774422E1,9.8652504E1,8.7651405E1,-3.2755142E1,-6.435578E-2,6.7963264E1,-1.672521E1,-5.7601147E1,1.233295E1,1.9364398E2,-2.410848E2,-7.2949356E1,1.2946805E2,-8.625742E1,6.2869225E1,1.2626576E2,1.6359885E2,1.0600856E2,2.4829936E2,1.27096054E2,2.8551385E2,9.230433E1,1.829026E1,-1.2868568E2,9.634576E1,6.826279E0,-5.718494E1,2.617219E1,-7.893722E1,-3.014267E2,3.2654118E1,1.5343047E2,1.6678801E2,3.4330713E2],"categories":[3,32,35,39,52,59,0,3,4,5,6,8,9,10,11,12,13,14,15,16,17,18,19,20,21,22,23,25,26,27,28,29,30,31,32,33,35,37,38,39,40,41,42,43,44,45,46,47,48,49,50,51,52,53,54,55,56,57,58,59,60,61,62,0,14,15,17,26,30,31,37,43,44,45,50,55,60,61,0,1,2,3,4,7,9,10,11,13,14,15,16,17,20,21,22,23,24,25,27,28,29,30,32,34,35,36,37,39,40,41,42,46,47,49,51,52,53,54,56,57,59,0,1,2,3,4,5,6,7,8,9,10,11,12,13,14,15,16,17,18,19,20,21,22,23,24,25,26,27,28,29,30,32,33,34,35,36,37,38,39,40,41,42,43,45,46,47,48,49,50,51,52,53,54,55,56,57,58,59,60,61,62,0,1,2,3,4,5,6,7,8,9,10,12,13,14,15,16,17,18,19,20,21,22,23,24,25,26,27,28,29,30,31,32,33,34,35,36,37,38,39,40,41,42,43,44,45,46,47,48,49,50,51,52,53,54,0,1,3,4,5,6,7,8,9,10,11,12,13,14,15,16,17,18,19,20,21,22,23,24,25,26,27,28,29,30,31,32,33,34,35,36,37,38,39,40,41,42,43,44,45,46,47,48,49,50,51,52,53,54,55,56,57,58,59,60,61,62,10,11,14,15,19,26,37,49,50,51,60,61,0,1,3,4,5,6,7,8,9,10,11,12,13,14,15,16,17,18,19,20,21,22,23,24,25,26,27,28,29,30,31,32,33,35,36,37,38,39,40,41,42,43,44,45,46,47,48,49,50,51,52,53,54,55,56,57,58,59,60,61,62,0,1,3,4,5,6,8,9,10,11,12,13,14,15,16,17,18,19,20,21,22,23,24,25,26,27,28,29,30,31,32,33,34,35,37,38,39,40,41,42,43,44,45,46,47,48,49,50,51,52,53,54,55,56,57,58,59,60,61,62,19,0,1,2,3,4,5,7,8,9,10,11,12,13,14,15,16,17,18,20,21,22,23,24,25,27,28,29,30,32,33,34,35,36,37,38,39,40,41,42,43,46,47,48,49,50,51,52,53,54,55,56,57,59,60,61,62],"categories_nodes":[1,2,8,13,14,16,23,30,41,42,45,46],"categories_segments":[0,6,63,78,121,182,236,298,310,371,431,432],"categories_sizes":[6,57,15,43,61,54,62,12,61,60,1,56],"default_left":[0,1,1,0,0,0,0,0,1,0,0,0,0,1,1,0,1,0,0,0,0,0,0,1,0,0,0,0,0,0,1,0,0,0,0,0,0,0,0,0,0,1,1,0,0,1,1,0,0,0,0,0,0,0,0,0,0,0,0,0,0,0,0,0,0,0,0,0,0,0,0,0,0,0,0,0,0,0,0,0,0,0,0,0,0,0,0,0,0],"id":6,"left_children":[1,3,5,7,9,11,13,15,17,-1,19,21,23,25,27,29,31,33,35,-1,37,39,41,43,-1,45,47,-1,49,51,53,-1,55,57,59,61,63,-1,65,67,69,71,73,-1,75,77,79,81,83,85,87,-1,-1,-1,-1,-1,-1,-1,-1,-1,-1,-1,-1,-1,-1,-1,-1,-1,-1,-1,-1,-1,-1,-1,-1,-1,-1,-1,-1,-1,-1,-1,-1,-1,-1,-1,-1,-1,-1],"loss_changes":[3.575755E10,1.0347346E10,6.3743795E9,2.01617E9,4.5315277E8,3.4656276E9,2.5818232E9,1.0332672E9,3.7266586E8,0E0,8.90839E7,1.6333722E9,3.1050906E8,4.0716176E8,3.9932365E8,4.3556147E8,1.617026E8,2.3950974E8,2.897193E8,0E0,6.516685E7,6.60725E8,5.668987E8,1.6004608E8,0E0,3.7733146E8,1.8777525E8,0E0,1.0305958E8,4.493819E8,1.4027827E8,0E0,7.858058E7,7.2975256E7,1.6124422E8,1.3069184E8,7.7012E7,0E0,6.082723E7,3.1300803E8,3.8188595E8,3.449733E8,5.2042086E8,0E0,1.2251578E8,5.341733E8,4.4631264E8,5.726339E7,1.575519E8,8.781398E7,8.573568E7,0E0,0E0,0E0,0E0,0E0,0E0,0E0,0E0,0E0,0E0,0E0,0E0,0E0,0E0,0E0,0E0,0E0,0E0,0E0,0E0,0E0,0E0,0E0,0E0,0E0,0E0,0E0,0E0,0E0,0E0,0E0,0E0,0E0,0E0,0E0,0E0,0E0,0E0],"parents":[2147483647,0,0,1,1,2,2,3,3,4,4,5,5,6,6,7,7,8,8,10,10,11,11,12,12,13,13,14,14,15,15,16,16,17,17,18,18,20,20,21,21,22,22,23,23,25,25,26,26,28,28,29,29,30,30,32,32,33,33,34,34,35,35,36,36,38,38,39,39,40,40,41,41,42,42,44,44,45,45,46,46,47,47,48,48,49,49,50,50],"right_children":[2,4,6,8,10,12,14,16,18,-1,20,22,24,26,28,30,32,34,36,-1,38,40,42,44,-1,46,48,-1,50,52,54,-1,56,58,60,62,64,-1,66,68,70,72,74,-1,76,78,80,82,84,86,88,-1,-1,-1,-1,-1,-1,-1,-1,-1,-1,-1,-1,-1,-1,-1,-1,-1,-1,-1,-1,-1,-1,-1,-1,-1,-1,-1,-1,-1,-1,-1,-1,-1,-1,-1,-1,-1,-1],"split_conditions":[1.5E4,1E-45,1E-45,1.265E4,2.5E-1,1E0,1E0,1E0,1E-45,-2.241135E1,2.5E3,-1.3438547E0,2.365E1,1E-45,1E-45,1.07E4,1E-45,5E-1,1E0,-3.568761E2,1E0,-1.1161091E2,4.27639E1,1E-45,4.8252036E2,7.5E-1,1.9125E4,3.4805963E2,5.0024807E1,7.5E-1,1E-45,1.8344023E2,8.660254E-1,4.6151204E0,7.802618E0,2.5E-1,3.536761E-1,-3.00274E2,-3.218085E2,4.171936E-1,1.9125E4,1E-45,1E-45,3.9129492E2,3.1310704E-1,1E-45,1E-45,2.55E1,3.8963044E-1,2.205E1,8.497194E0,-1.2956982E2,-5.090526E1,-5.406125E1,-8.769477E1,-6.774422E1,9.8652504E1,8.7651405E1,-3.2755142E1,-6.435578E-2,6.7963264E1,-1.672521E1,-5.7601147E1,1.233295E1,1.9364398E2,-2.410848E2,-7.2949356E1,1.2946805E2,-8.625742E1,6.2869225E1,1.2626576E2,1.6359885E2,1.0600856E2,2.4829936E2,1.27096054E2,2.8551385E2,9.230433E1,1.829026E1,-1.2868568E2,9.634576E1,6.826279E0,-5.718494E1,2.617219E1,-7.893722E1,-3.014267E2,3.2654118E1,1.5343047E2,1.6678801E2,3.4330713E2],"split_indices":[19,0,0,19,12,12,12,12,0,0,19,21,3,0,0,19,0,12,12,0,14,21,21,0,0,12,19,0,21,12,0,0,6,1,1,12,8,0,21,8,19,0,0,0,8,0,0,5,9,3,1,0,0,0,0,0,0,0,0,0,0,0,0,0,0,0,0,0,0,0,0,0,0,0,0,0,0,0,0,0,0,0,0,0,0,0,0,0,0],"split_type":[0,1,1,0,0,0,0,0,1,0,0,0,0,1,1,0,1,0,0,0,0,0,0,1,0,0,0,0,0,0,1,0,0,0,0,0,0,0,0,0,0,1,1,0,0,1,1,0,0,0,0,0,0,0,0,0,0,0,0,0,0,0,0,0,0,0,0,0,0,0,0,0,0,0,0,0,0,0,0,0,0,0,0,0,0,0,0,0,0],"sum_hessian":[5.396E3,2.752E3,2.644E3,2.548E3,2.04E2,1.391E3,1.253E3,1.644E3,9.04E2,6E0,1.98E2,1.328E3,6.3E1,1.165E3,8.8E1,1.617E3,2.7E1,3.36E2,5.68E2,1.46E2,5.2E1,5.23E2,8.05E2,3.2E1,3.1E1,1.107E3,5.8E1,2.1E1,6.7E1,6.94E2,9.23E2,1.6E1,1.1E1,1.65E2,1.71E2,5.57E2,1.1E1,3.9E1,1.3E1,4.7E1,4.76E2,5.88E2,2.17E2,1.3E1,1.9E1,8.26E2,2.81E2,3.9E1,1.9E1,4E1,2.7E1,5.86E2,1.08E2,2.05E2,7.18E2,6E0,5E0,5E0,1.6E2,9.5E1,7.6E1,1.25E2,4.32E2,5E0,6E0,6E0,7E0,9E0,3.8E1,2.43E2,2.33E2,3.75E2,2.13E2,1.48E2,6.9E1,9E0,1E1,7.96E2,3E1,1.65E2,1.16E2,2.3E1,1.6E1,1.4E1,5E0,1.1E1,2.9E1,2.1E1,6E0],"tree_param":{"num_deleted":"0","num_feature":"22","num_nodes":"89","size_leaf_vector":"1"}},{"base_weights":[6.8612556E0,-2.0519292E3,3.2227808E3,-1.6430763E3,-9.007904E3,1.5277853E3,4.8755747E3,-2.5649587E3,-2.9311615E2,-3.3416615E1,-9.364804E3,2.3366833E3,5.3922675E2,4.3058584E3,9.074331E3,-1.3118195E3,-2.9772598E3,1.1708131E3,-7.091566E2,-3.3618314E2,-5.68499E3,2.2526143E3,2.2997148E2,-9.222915E2,1.0079906E3,4.5157026E3,1.741872E3,-1.1924022E2,9.952657E3,-3.058785E2,-1.1863035E3,-3.3553533E3,-2.353591E3,1.0309425E3,2.1391463E2,-1.2211083E3,-2.042432E2,-2.9601648E2,-1.1226574E1,-1.750912E2,2.3276526E3,-1.925836E2,-5.5412384E2,6.584142E2,2.0751843E3,4.117474E3,5.9235933E3,4.208571E3,-2.6394278E2,5.1587847E3,1.089614E4,2.1063768E1,-5.2849266E1,2.8852156E1,-1.2074855E2,-1.0805543E2,-7.472947E1,2.5196741E1,7.7077354E1,-5.2981255E1,-1.3860545E1,3.6883656E1,-1.2893557E1,-4.7408245E1,4.046437E1,7.4107635E1,1.0191612E2,2.5951515E1,-4.818628E1,3.2502064E1,-5.5533533E0,4.819203E1,1.125181E2,1.3979657E2,2.2008162E2,-2.1227718E1,2.1365791E2,6.9118935E1,2.1285512E2,-3.4200485E1,1.1409323E2,2.99967E2,9.7601265E1,3.146638E2,4.378569E2],"categories":[3,32,39,59,0,3,4,6,8,9,10,11,13,14,15,16,17,18,20,21,22,23,24,25,26,27,28,29,30,31,32,33,34,35,37,38,39,40,41,42,43,44,46,47,49,50,51,52,53,54,55,56,57,59,61,62,2,10,11,14,15,17,19,20,26,28,30,35,36,37,41,49,50,51,60,61,3,4,5,6,9,10,11,12,13,14,15,16,17,19,20,21,26,28,31,33,37,43,48,49,50,51,55,60,61,62,0,3,4,5,6,7,8,9,10,12,13,14,15,16,17,18,20,22,23,24,25,26,27,28,29,30,32,33,34,35,37,38,39,40,41,42,43,44,46,47,49,50,51,52,53,54,55,56,57,58,59,60,61,62,0,2,3,4,5,6,7,8,9,10,11,12,13,14,15,16,17,18,19,20,21,22,23,24,25,26,27,28,29,30,31,32,33,34,35,36,37,38,39,40,41,42,43,45,46,47,48,49,50,51,52,53,54,55,56,57,0,1,2,3,4,5,6,7,8,9,10,12,13,14,15,16,17,18,19,20,21,22,23,24,25,27,28,29,30,31,32,34,35,36,37,38,39,40,41,42,43,44,45,46,47,48,49,51,52,53,54,55,56,57,58,59,60,61,62,0,1,2,3,4,5,6,7,8,9,10,12,13,14,15,16,18,19,20,22,23,24,25,26,27,28,29,30,31,32,33,34,35,36,37,38,39,40,41,42,43,44,45,46,47,48,49,50,55,0,1,2,3,4,5,6,7,8,9,10,11,12,13,14,15,16,17,18,19,20,21,22,23,24,25,27,28,29,30,32,33,34,35,36,37,39,40,41,42,43,44,45,46,47,48,49,51,52,53,54,56,57,58,59,60],"categories_nodes":[1,5,7,8,13,30,36,42,43],"categories_segments":[0,4,56,76,106,160,216,275,324],"categories_sizes":[4,52,20,30,54,56,59,49,56],"default_left":[0,1,0,0,0,1,0,1,1,0,0,0,0,1,0,0,0,0,0,0,0,0,0,0,0,0,0,0,0,0,1,0,0,0,0,0,1,0,0,0,0,0,1,1,0,0,0,0,0,0,0,0,0,0,0,0,0,0,0,0,0,0,0,0,0,0,0,0,0,0,0,0,0,0,0,0,0,0,0,0,0,0,0,0,0],"id":7,"left_children":[1,3,5,7,9,11,13,15,17,-1,19,21,23,25,27,29,31,33,35,-1,37,39,-1,41,43,45,47,-1,49,-1,51,53,55,57,-1,59,61,-1,-1,63,65,-1,67,69,71,73,75,77,79,81,83,-1,-1,-1,-1,-1,-1,-1,-1,-1,-1,-1,-1,-1,-1,-1,-1,-1,-1,-1,-1,-1,-1,-1,-1,-1,-1,-1,-1,-1,-1,-1,-1,-1,-1],"loss_changes":[3.6156744E10,9.446794E9,5.9601756E9,3.914705E9,5.168732E8,8.4133325E8,2.5212723E9,9.6005734E8,7.799207E8,0E0,7.424512E7,1.8406605E8,3.2784794E8,5.0068275E8,1.4485873E9,4.1842317E8,3.195781E8,1.8647616E8,2.5721229E8,0E0,2.1158816E8,1.045399E8,0E0,1.9187328E8,1.328135E8,4.565156E8,3.7027328E8,0E0,4.5617357E8,0E0,2.6730912E8,3.4887578E8,7.594598E7,9.871658E7,0E0,1.1850093E8,1.0455675E8,0E0,0E0,3.1395424E7,5.8754304E7,0E0,1.1823554E8,6.082757E7,6.3784544E7,1.4710477E8,2.3061453E8,1.2214182E8,1.1158824E8,1.460919E8,1.3427507E8,0E0,0E0,0E0,0E0,0E0,0E0,0E0,0E0,0E0,0E0,0E0,0E0,0E0,0E0,0E0,0E0,0E0,0E0,0E0,0E0,0E0,0E0,0E0,0E0,0E0,0E0,0E0,0E0,0E0,0E0,0E0,0E0,0E0,0E0],"parents":[2147483647,0,0,1,1,2,2,3,3,4,4,5,5,6,6,7,7,8,8,10,10,11,11,12,12,13,13,14,14,15,15,16,16,17,17,18,18,20,20,21,21,23,23,24,24,25,25,26,26,28,28,30,30,31,31,32,32,33,33,35,35,36,36,39,39,40,40,42,42,43,43,44,44,45,45,46,46,47,47,48,48,49,49,50,50],"right_children":[2,4,6,8,10,12,14,16,18,-1,20,22,24,26,28,30,32,34,36,-1,38,40,-1,42,44,46,48,-1,50,-1,52,54,56,58,-1,60,62,-1,-1,64,66,-1,68,70,72,74,76,78,80,82,84,-1,-1,-1,-1,-1,-1,-1,-1,-1,-1,-1,-1,-1,-1,-1,-1,-1,-1,-1,-1,-1,-1,-1,-1,-1,-1,-1,-1,-1,-1,-1,-1,-1,-1],"split_conditions":[1.55E4,1E-45,1.96E4,1.25E4,2.5E-1,1E-45,2.56E4,1E-45,1E-45,-3.3416615E1,1.066E2,1E0,1.4188E4,1E-45,1.4123E4,1.7E3,1.08E4,2.5E4,1.3564E4,-3.3618314E2,-2.3867276E-1,1.375E4,2.2997148E2,1E4,7.5E-1,2.25E4,7E-1,-1.1924022E2,1.9125E4,-3.058785E2,1E-45,4.2E3,6.685861E0,2.945055E1,2.1391463E2,7.5E-1,1E-45,-2.9601648E2,-1.1226574E1,1.2961E4,1.9E4,-1.925836E2,1E-45,1E-45,1.8E4,1E0,-1.9966518E2,1.9E4,1E0,5E-2,2.9436E4,2.1063768E1,-5.2849266E1,2.8852156E1,-1.2074855E2,-1.0805543E2,-7.472947E1,2.5196741E1,7.7077354E1,-5.2981255E1,-1.3860545E1,3.6883656E1,-1.2893557E1,-4.7408245E1,4.046437E1,7.4107635E1,1.0191612E2,2.5951515E1,-4.818628E1,3.2502064E1,-5.5533533E0,4.819203E1,1.125181E2,1.3979657E2,2.2008162E2,-2.1227718E1,2.1365791E2,6.9118935E1,2.1285512E2,-3.4200485E1,1.1409323E2,2.99967E2,9.7601265E1,3.146638E2,4.378569E2],"split_indices":[17,0,17,17,12,0,17,0,0,0,5,12,19,0,19,19,17,19,18,0,8,19,0,19,12,17,5,0,19,0,0,17,2,21,0,12,0,0,0,18,17,0,0,0,17,12,21,18,15,16,17,0,0,0,0,0,0,0,0,0,0,0,0,0,0,0,0,0,0,0,0,0,0,0,0,0,0,0,0,0,0,0,0,0,0],"split_type":[0,1,0,0,0,1,0,1,1,0,0,0,0,1,0,0,0,0,0,0,0,0,0,0,0,0,0,0,0,0,1,0,0,0,0,0,1,0,0,0,0,0,1,1,0,0,0,0,0,0,0,0,0,0,0,0,0,0,0,0,0,0,0,0,0,0,0,0,0,0,0,0,0,0,0,0,0,0,0,0,0,0,0,0,0],"sum_hessian":[5.458E3,3.328E3,2.13E3,3.145E3,1.83E2,1.053E3,1.077E3,1.868E3,1.277E3,8E0,1.75E2,5.78E2,4.75E2,9.51E2,1.26E2,4.64E2,1.404E3,2.82E2,9.95E2,1.62E2,1.3E1,5.69E2,9E0,1.15E2,3.6E2,8.78E2,7.3E1,8E0,1.18E2,6E0,4.58E2,8.7E2,5.34E2,2.76E2,6E0,4.93E2,5.02E2,8E0,5E0,1.7E1,5.52E2,7E0,1.08E2,2.73E2,8.7E1,6.89E2,1.89E2,3.2E1,4.1E1,2.1E1,9.7E1,7E1,3.88E2,1.9E1,8.51E2,1.18E2,4.16E2,2.2E2,5.6E1,3.63E2,1.3E2,5.7E1,4.45E2,9E0,8E0,4.11E2,1.41E2,4.2E1,6.6E1,2.05E2,6.8E1,5.6E1,3.1E1,6.56E2,3.3E1,5E0,1.84E2,1.6E1,1.6E1,3.5E1,6E0,7E0,1.4E1,4.9E1,4.8E1],"tree_param":{"num_deleted":"0","num_feature":"22","num_nodes":"85","size_leaf_vector":"1"}},{"base_weights":[-1.8308804E1,-2.3653882E3,2.6517527E3,-1.9003718E3,-8.839257E3,1.1243146E3,4.593142E3,-2.6194417E3,-5.950044E2,-3.618917E1,-9.123899E3,2.901555E2,2.1754187E3,4.100264E3,8.518292E3,-3.2312747E3,-1.954764E3,1.0285103E3,-9.382012E2,-3.3028284E2,-6.06533E3,-2.5603726E2,3.8123624E2,1.7945547E3,3.0609167E3,4.353854E3,7.2466644E2,-4.187139E1,9.29756E3,-4.433866E3,-3.0633027E3,-2.2502102E3,-1.2788097E3,8.431976E2,1.5287778E2,-1.885249E3,-2.6626184E2,-5.0769014E0,-2.746156E2,6.7719794E2,-8.204474E2,1.8873457E3,-7.839598E2,1.8756746E3,3.759102E3,3.9004688E3,5.8703687E3,-5.1760583E2,3.6497883E3,6.6439414E3,1.1667416E4,6.104411E1,-1.6886952E2,-1.1171823E2,-7.059324E1,-6.3035038E1,-9.587704E1,6.531078E1,-5.1461563E1,2.194355E1,9.4026726E1,-4.5146885E1,-1.0064087E2,2.653834E1,-2.1028572E1,5.4440266E1,1.7992174E1,-5.634501E1,2.6056992E1,5.6262897E1,8.646226E1,6.813525E1,-1.5575471E2,7.671564E1,-3.121718E1,2.5572101E2,1.18879135E2,1.3246399E2,2.1344814E2,1.8540042E2,2.6845413E2,-8.170717E1,1.6770859E1,1.5137074E2,3.8283825E1,2.56084E2,2.4346914E1,3.1965906E2,4.5616595E2],"categories":[3,32,39,52,59,0,2,7,12,14,18,19,21,26,30,31,36,43,45,48,50,55,60,61,62,0,3,4,5,6,7,8,9,10,13,14,15,16,17,18,20,21,22,23,25,26,27,28,29,30,32,33,35,37,38,39,40,41,43,44,46,47,49,50,51,52,53,54,55,56,57,58,59,60,61,62,0,1,2,3,4,6,7,8,9,10,11,13,14,16,20,21,22,23,24,25,26,27,28,29,30,32,33,34,35,36,37,39,40,41,42,43,44,46,47,48,51,52,53,54,56,57,58,60,44,0,10,11,14,15,19,26,37,45,49,50,51,0,1,2,3,4,5,6,7,8,9,10,12,13,14,15,16,17,18,19,20,22,23,24,25,26,27,28,29,30,31,32,33,34,35,36,37,38,39,40,41,42,43,44,45,46,47,48,49,50,51,55,60,61,2,7,19,21,30,45,60,61,0,12,14,19,26,31,48,50,55,60,62,0,1,2,3,4,5,6,7,8,9,10,11,13,14,15,16,17,18,20,21,22,23,24,25,26,27,28,29,30,31,32,33,34,35,36,37,38,39,40,41,42,43,44,45,46,47,48,49,50,51,52,53,54,55,56,57,58,59,60,61,62,0,2,3,4,5,6,7,8],"categories_nodes":[1,8,13,22,23,31,32,35,36,39,43],"categories_segments":[0,5,25,76,124,125,137,190,198,209,270],"categories_sizes":[5,20,51,48,1,12,53,8,11,61,8],"default_left":[0,1,0,0,0,0,0,0,1,0,0,0,0,1,0,0,0,0,0,0,0,0,1,1,0,0,0,0,0,0,0,1,1,0,0,1,1,0,0,1,0,0,0,1,0,0,0,0,0,0,0,0,0,0,0,0,0,0,0,0,0,0,0,0,0,0,0,0,0,0,0,0,0,0,0,0,0,0,0,0,0,0,0,0,0,0,0,0,0],"id":8,"left_children":[1,3,5,7,9,11,13,15,17,-1,19,21,23,25,27,29,31,33,35,-1,37,-1,39,41,43,45,47,-1,49,51,53,55,57,59,-1,61,63,-1,-1,65,67,69,71,73,75,77,79,81,83,85,87,-1,-1,-1,-1,-1,-1,-1,-1,-1,-1,-1,-1,-1,-1,-1,-1,-1,-1,-1,-1,-1,-1,-1,-1,-1,-1,-1,-1,-1,-1,-1,-1,-1,-1,-1,-1,-1,-1],"loss_changes":[3.407285E10,8.685555E9,7.534627E9,2.5334262E9,4.157481E8,1.2489143E9,2.1134172E9,6.987438E8,5.371807E8,0E0,9.254707E7,5.5593024E8,2.0439885E8,8.491448E8,9.5161446E8,1.6233677E8,1.631383E8,9.874909E7,5.0483366E8,0E0,2.249666E8,0E0,2.8126528E8,1.0857203E8,1.4458304E8,6.033695E8,2.626506E8,0E0,6.03777E8,2.7228378E8,9.782835E7,1.2036813E8,1.5981005E8,6.1845336E7,0E0,1.8867827E8,1.6057674E8,0E0,0E0,8.95633E7,1.9513382E8,6.4113536E7,1.7817904E8,6.6378384E7,1.1260083E8,1.4823526E8,1.5621427E8,9.4945736E7,3.0001888E7,2.2246246E8,2.3949312E7,0E0,0E0,0E0,0E0,0E0,0E0,0E0,0E0,0E0,0E0,0E0,0E0,0E0,0E0,0E0,0E0,0E0,0E0,0E0,0E0,0E0,0E0,0E0,0E0,0E0,0E0,0E0,0E0,0E0,0E0,0E0,0E0,0E0,0E0,0E0,0E0,0E0,0E0],"parents":[2147483647,0,0,1,1,2,2,3,3,4,4,5,5,6,6,7,7,8,8,10,10,11,11,12,12,13,13,14,14,15,15,16,16,17,17,18,18,20,20,22,22,23,23,24,24,25,25,26,26,28,28,29,29,30,30,31,31,32,32,33,33,35,35,36,36,39,39,40,40,41,41,42,42,43,43,44,44,45,45,46,46,47,47,48,48,49,49,50,50],"right_children":[2,4,6,8,10,12,14,16,18,-1,20,22,24,26,28,30,32,34,36,-1,38,-1,40,42,44,46,48,-1,50,52,54,56,58,60,-1,62,64,-1,-1,66,68,70,72,74,76,78,80,82,84,86,88,-1,-1,-1,-1,-1,-1,-1,-1,-1,-1,-1,-1,-1,-1,-1,-1,-1,-1,-1,-1,-1,-1,-1,-1,-1,-1,-1,-1,-1,-1,-1,-1,-1,-1,-1,-1,-1,-1],"split_conditions":[1.4996E4,1E-45,1.95E4,1.4E4,2.5E-1,1.61E4,2.363E4,1.1022E4,1E-45,-3.618917E1,8.68E1,5.465E3,7.5E-1,1E-45,1.4123E4,1E4,1.25E4,2.5E4,1.25E4,-3.3028284E2,1.425E3,-2.5603726E2,1E-45,1E-45,-1.159346E-1,2.25E4,1.8153E4,-4.187139E1,1E0,2.25E1,7.5E-1,1E-45,1E-45,1.99E4,1.5287778E2,1E-45,1E-45,-5.0769014E0,-2.746156E2,1E-45,7.5E-1,1.95E4,1.7166E4,1E-45,-3.0120306E-2,1E0,2.56E4,1.4583E4,2.0466E4,1E0,2.365E1,6.104411E1,-1.6886952E2,-1.1171823E2,-7.059324E1,-6.3035038E1,-9.587704E1,6.531078E1,-5.1461563E1,2.194355E1,9.4026726E1,-4.5146885E1,-1.0064087E2,2.653834E1,-2.1028572E1,5.4440266E1,1.7992174E1,-5.634501E1,2.6056992E1,5.6262897E1,8.646226E1,6.813525E1,-1.5575471E2,7.671564E1,-3.121718E1,2.5572101E2,1.18879135E2,1.3246399E2,2.1344814E2,1.8540042E2,2.6845413E2,-8.170717E1,1.6770859E1,1.5137074E2,3.8283825E1,2.56084E2,2.4346914E1,3.1965906E2,4.5616595E2],"split_indices":[17,0,17,19,12,19,18,18,0,0,5,19,12,0,19,19,17,19,17,0,17,0,0,0,9,17,18,0,12,3,12,0,0,18,0,0,0,0,0,0,12,19,17,0,9,12,17,19,18,15,3,0,0,0,0,0,0,0,0,0,0,0,0,0,0,0,0,0,0,0,0,0,0,0,0,0,0,0,0,0,0,0,0,0,0,0,0,0,0],"split_type":[0,1,0,0,0,0,0,0,1,0,0,0,0,1,0,0,0,0,0,0,0,0,1,1,0,0,0,0,0,0,0,1,1,0,0,1,1,0,0,1,0,0,0,1,0,0,0,0,0,0,0,0,0,0,0,0,0,0,0,0,0,0,0,0,0,0,0,0,0,0,0,0,0,0,0,0,0,0,0,0,0,0,0,0,0,0,0,0,0],"sum_hessian":[5.434E3,2.892E3,2.542E3,2.7E3,1.92E2,1.424E3,1.118E3,1.74E3,9.6E2,7E0,1.85E2,7.95E2,6.29E2,9.96E2,1.22E2,9.03E2,8.37E2,1.67E2,7.93E2,1.65E2,2E1,8E0,7.87E2,4.43E2,1.86E2,9.26E2,7E1,9E0,1.13E2,1.06E2,7.97E2,5.8E2,2.57E2,1.6E2,7E0,3.28E2,4.65E2,5E0,1.5E1,6.32E2,1.55E2,4.28E2,1.5E1,7.1E1,1.15E2,7.17E2,2.09E2,5E1,2E1,5.6E1,5.7E1,6E0,1E2,7.07E2,9E1,3.06E2,2.74E2,1.4E1,2.43E2,1.45E2,1.5E1,2.07E2,1.21E2,1.14E2,3.51E2,9.7E1,5.35E2,1.03E2,5.2E1,2.93E2,1.35E2,9E0,6E0,6.4E1,7E0,8E0,1.07E2,6.85E2,3.2E1,1.63E2,4.6E1,1.7E1,3.3E1,1.5E1,5E0,5E1,6E0,2.4E1,3.3E1],"tree_param":{"num_deleted":"0","num_feature":"22","num_nodes":"89","size_leaf_vector":"1"}},{"base_weights":[-3.2398975E1,-1.7183085E3,3.553386E3,-8.314225E3,-1.3332273E3,2.8403806E3,6.515315E3,-3.2294284E2,2.2296519E3,-2.4557842E3,-4.913358E1,1.8013718E3,3.7413594E3,3.9575497E2,6.898929E3,-8.461033E1,1.9855743E2,-2.8446592E3,-1.4561556E3,-5.814094E2,1.0073185E3,7.287209E2,2.2158904E3,2.363295E3,4.098126E3,2.1572297E3,-1.16331726E2,5.6296963E3,9.136689E3,-3.9966775E3,-2.6396511E3,-1.7275114E3,-4.657664E2,-1.5713868E3,-3.022636E2,9.2455365E2,4.451941E3,4.1634907E1,1.774858E3,2.8900881E3,1.798797E3,1.0146372E2,3.1001914E3,3.9200498E3,6.174928E3,1.1967656E2,-1.3277423E1,7.3345234E3,5.2658696E3,4.47675E3,1.0132794E4,-2.612016E2,-1.286759E2,-9.728314E1,-5.5367954E1,-4.849863E1,-1.1573276E2,-3.843851E1,8.909524E1,-6.049854E1,1.5609257E1,-2.8972319E1,4.025722E0,2.9701193E1,1.5029924E2,2.4677647E2,4.5823143E1,-1.9484968E1,4.8294453E1,8.348989E0,7.5693344E1,8.5723465E1,1.3573485E2,5.5996742E1,1.4025139E2,6.1742992E1,-2.7325274E1,1.1979832E2,-4.115352E1,1.4016765E2,1.0275587E2,1.750305E2,3.398773E2,1.8483446E2,3.176503E2,8.8006966E1,1.9183588E2,8.4333405E1,3.153235E2,2.7945352E2,4.025219E2],"categories":[],"categories_nodes":[],"categories_segments":[],"categories_sizes":[],"default_left":[0,0,0,0,0,0,0,0,0,0,0,0,0,0,0,0,0,0,0,0,0,0,0,0,0,0,0,0,0,0,0,0,0,0,0,0,0,0,0,0,0,0,0,0,0,0,0,0,0,0,0,0,0,0,0,0,0,0,0,0,0,0,0,0,0,0,0,0,0,0,0,0,0,0,0,0,0,0,0,0,0,0,0,0,0,0,0,0,0,0,0],"id":9,"left_children":[1,3,5,7,9,11,13,-1,15,17,19,21,23,25,27,-1,-1,29,31,33,35,37,39,41,43,45,-1,47,49,51,53,55,57,59,61,63,65,67,69,71,73,75,77,79,81,-1,-1,83,85,87,89,-1,-1,-1,-1,-1,-1,-1,-1,-1,-1,-1,-1,-1,-1,-1,-1,-1,-1,-1,-1,-1,-1,-1,-1,-1,-1,-1,-1,-1,-1,-1,-1,-1,-1,-1,-1,-1,-1,-1,-1],"loss_changes":[3.2995387E10,9.412985E9,3.6585124E9,1.9988746E9,5.0586516E9,1.3093591E9,7.8820045E8,0E0,3.006045E8,7.2168346E8,9.222462E8,2.8992397E8,3.55926E8,1.5161958E8,8.2462E8,0E0,0E0,3.021824E8,1.4055731E8,3.0064496E8,1.5048429E8,1.3322381E8,1.2535142E8,2.6370534E8,1.8429338E8,5.1568104E7,0E0,7.014912E7,4.5415526E8,1.8139136E8,1.6316416E8,2.1633677E8,2.2417528E8,7.708147E7,1.8708755E8,1.32348E8,8.824402E7,9.203334E7,4.301699E7,6.3502336E7,1.2061344E8,6.1469012E7,1.7088922E8,2.852352E7,1.1188736E8,0E0,0E0,4.4313216E7,8.321792E7,1.7825456E8,1.3114778E8,0E0,0E0,0E0,0E0,0E0,0E0,0E0,0E0,0E0,0E0,0E0,0E0,0E0,0E0,0E0,0E0,0E0,0E0,0E0,0E0,0E0,0E0,0E0,0E0,0E0,0E0,0E0,0E0,0E0,0E0,0E0,0E0,0E0,0E0,0E0,0E0,0E0,0E0,0E0,0E0],"parents":[2147483647,0,0,1,1,2,2,3,3,4,4,5,5,6,6,8,8,9,9,10,10,11,11,12,12,13,13,14,14,17,17,18,18,19,19,20,20,21,21,22,22,23,23,24,24,25,25,27,27,28,28,29,29,30,30,31,31,32,32,33,33,34,34,35,35,36,36,37,37,38,38,39,39,40,40,41,41,42,42,43,43,44,44,47,47,48,48,49,49,50,50],"right_children":[2,4,6,8,10,12,14,-1,16,18,20,22,24,26,28,-1,-1,30,32,34,36,38,40,42,44,46,-1,48,50,52,54,56,58,60,62,64,66,68,70,72,74,76,78,80,82,-1,-1,84,86,88,90,-1,-1,-1,-1,-1,-1,-1,-1,-1,-1,-1,-1,-1,-1,-1,-1,-1,-1,-1,-1,-1,-1,-1,-1,-1,-1,-1,-1,-1,-1,-1,-1,-1,-1,-1,-1,-1,-1,-1,-1],"split_conditions":[1.683E4,8.5E3,2.25E4,2.22E3,1.25E4,1.96E4,1.5075E4,-3.2294284E2,5E-1,1.325E4,1.54E4,1.604E4,1.9E4,2.56E4,2.75E4,-8.461033E1,1.9855743E2,9.6E3,6.5E3,1.25E4,2.5E4,8.2E3,7.034388E0,1.75E4,1E0,5E-1,-1.16331726E2,6.616065E0,1.9125E4,8E3,7.5E-1,2E4,1.85E4,9.9270886E-1,1.4E4,1E0,1E2,4.0542573E-1,5E-1,7.5E-1,1.95E4,2.3E1,2.1E4,2.745E1,8.607217E0,1.1967656E2,-1.3277423E1,2.3E4,6.9246125E0,8.292548E0,2.9436E4,-2.612016E2,-1.286759E2,-9.728314E1,-5.5367954E1,-4.849863E1,-1.1573276E2,-3.843851E1,8.909524E1,-6.049854E1,1.5609257E1,-2.8972319E1,4.025722E0,2.9701193E1,1.5029924E2,2.4677647E2,4.5823143E1,-1.9484968E1,4.8294453E1,8.348989E0,7.5693344E1,8.5723465E1,1.3573485E2,5.5996742E1,1.4025139E2,6.1742992E1,-2.7325274E1,1.1979832E2,-4.115352E1,1.4016765E2,1.0275587E2,1.750305E2,3.398773E2,1.8483446E2,3.176503E2,8.8006966E1,1.9183588E2,8.4333405E1,3.153235E2,2.7945352E2,4.025219E2],"split_indices":[17,19,17,20,17,17,19,0,12,19,19,19,18,17,17,0,0,18,20,19,19,20,1,19,12,4,0,1,19,17,12,19,19,11,18,12,20,9,12,12,17,3,19,3,1,0,0,17,1,1,17,0,0,0,0,0,0,0,0,0,0,0,0,0,0,0,0,0,0,0,0,0,0,0,0,0,0,0,0,0,0,0,0,0,0,0,0,0,0,0,0],"split_type":[0,0,0,0,0,0,0,0,0,0,0,0,0,0,0,0,0,0,0,0,0,0,0,0,0,0,0,0,0,0,0,0,0,0,0,0,0,0,0,0,0,0,0,0,0,0,0,0,0,0,0,0,0,0,0,0,0,0,0,0,0,0,0,0,0,0,0,0,0,0,0,0,0,0,0,0,0,0,0,0,0,0,0,0,0,0,0,0,0,0,0],"sum_hessian":[5.455E3,3.711E3,1.744E3,2.03E2,3.508E3,1.408E3,3.36E2,1.87E2,1.6E1,1.871E3,1.637E3,6.56E2,7.52E2,2E1,3.16E2,7E0,9E0,1.345E3,5.26E2,1.089E3,5.48E2,1.84E2,4.72E2,1.57E2,5.95E2,1.4E1,6E0,2.05E2,1.11E2,1.99E2,1.146E3,4.12E2,1.14E2,2.38E2,8.51E2,5.37E2,1.1E1,1.12E2,7.2E1,1.77E2,2.95E2,3.9E1,1.18E2,5.52E2,4.3E1,9E0,5E0,3.1E1,1.74E2,2.1E1,9E1,1.4E1,1.85E2,1.01E3,1.36E2,3.41E2,7.1E1,9.5E1,1.9E1,2.21E2,1.7E1,3.76E2,4.75E2,5.27E2,1E1,5E0,6E0,7.8E1,3.4E1,1.5E1,5.7E1,1.26E2,5.1E1,2.73E2,2.2E1,1.3E1,2.6E1,1.1E2,8E0,5.04E2,4.8E1,3.5E1,8E0,1.7E1,1.4E1,1.4E1,1.6E2,1.6E1,5E0,3.9E1,5.1E1],"tree_param":{"num_deleted":"0","num_feature":"22","num_nodes":"91","size_leaf_vector":"1"}},{"base_weights":[2.9737776E1,-1.8405248E3,2.9460051E3,-7.8767153E3,-1.4702659E3,1.4267933E3,4.398646E3,-8.595785E3,-4.8378496E3,-2.2965718E3,-2.7765656E2,-1.0981995E3,1.7011017E3,3.936101E3,8.1356733E3,-8.753769E3,-1.0765069E2,5.964844E1,-6.0858794E3,-2.6884697E3,-1.3290553E3,-1.2363475E3,1.4981805E2,-2.2001144E2,-6.7352716E2,1.0192764E3,2.1598774E3,1.7761313E3,4.122388E3,1.8231558E3,1.0101952E4,-3.135568E2,-5.7539243E3,-4.683131E3,-2.8554913E2,-3.8112842E3,-2.5006526E3,-1.4129086E3,2.0205627E3,-1.6067968E3,-6.984361E2,-3.4763763E2,8.122733E2,-1.1198927E3,1.0414563E3,6.473788E2,1.91383E3,3.014559E3,1.841783E3,4.2291937E2,5.3342056E3,3.7167205E3,5.399234E3,-2.126908E2,3.8074658E3,2.0668799E2,1.0644446E4,-5.7993126E1,-2.755024E2,-2.2993414E2,-6.502268E1,-2.6311728E2,-1.2358682E2,-9.230422E1,-4.9498432E1,-4.1486343E1,-9.726509E1,-1.4416029E1,1.4171194E2,-5.9001446E1,5.2188786E1,-3.6864628E1,3.3000477E1,-2.3174532E1,3.8768135E1,2.3133581E1,1.1401442E2,-1.4104909E2,-2.7526825E1,-2.2978226E1,6.341966E1,5.6998525E0,4.039579E1,8.397811E1,1.4265127E1,5.9542522E1,1.2064591E2,-4.5035034E1,6.599426E1,8.549529E1,-4.986301E1,2.0389288E2,9.9962135E1,1.2804076E2,2.2250407E2,3.0678913E1,1.9505963E2,5.77405E1,2.9289322E2,3.8197308E2,1.8298863E2],"categories":[],"categories_nodes":[],"categories_segments":[],"categories_sizes":[],"default_left":[0,0,0,0,0,0,0,0,0,0,0,0,0,0,0,0,0,0,0,0,0,0,0,0,0,0,0,0,0,0,0,0,0,0,0,0,0,0,0,0,0,0,0,0,0,0,0,0,0,0,0,0,0,0,0,0,0,0,0,0,0,0,0,0,0,0,0,0,0,0,0,0,0,0,0,0,0,0,0,0,0,0,0,0,0,0,0,0,0,0,0,0,0,0,0,0,0,0,0,0,0],"id":10,"left_children":[1,3,5,7,9,11,13,15,17,19,21,23,25,27,29,31,-1,-1,33,35,37,39,41,-1,43,45,47,49,51,53,55,-1,57,59,-1,61,63,65,67,69,71,73,75,77,79,81,83,85,87,89,91,93,95,-1,97,-1,99,-1,-1,-1,-1,-1,-1,-1,-1,-1,-1,-1,-1,-1,-1,-1,-1,-1,-1,-1,-1,-1,-1,-1,-1,-1,-1,-1,-1,-1,-1,-1,-1,-1,-1,-1,-1,-1,-1,-1,-1,-1,-1,-1,-1],"loss_changes":[2.925075E10,7.285338E9,4.615082E9,3.4952192E8,3.034754E9,7.1378355E8,1.802369E9,9.086054E7,3.3806477E8,6.845348E8,5.1767072E8,2.1726656E8,2.865111E8,3.7348557E8,1.4183905E9,1.2153856E7,0E0,0E0,4.00864E7,2.5848115E8,1.5244454E8,7.593165E7,2.8860822E8,0E0,7.485565E7,1.2306352E8,1.418793E8,3.745796E8,4.2493952E8,4.9715158E8,1.0718925E8,0E0,9.755629E7,1.0694138E8,0E0,1.4973312E8,1.5951718E8,1.5532845E8,6.910899E7,5.990784E7,9.554722E7,2.3016869E8,1.3570682E8,6.9469864E7,2.8605686E7,6.540289E7,7.861603E7,7.49801E7,5.929984E7,2.2352704E8,1.21888E6,6.868685E7,1.566551E8,0E0,2.2040125E8,0E0,2.5897984E7,0E0,0E0,0E0,0E0,0E0,0E0,0E0,0E0,0E0,0E0,0E0,0E0,0E0,0E0,0E0,0E0,0E0,0E0,0E0,0E0,0E0,0E0,0E0,0E0,0E0,0E0,0E0,0E0,0E0,0E0,0E0,0E0,0E0,0E0,0E0,0E0,0E0,0E0,0E0,0E0,0E0,0E0,0E0,0E0],"parents":[2147483647,0,0,1,1,2,2,3,3,4,4,5,5,6,6,7,7,8,8,9,9,10,10,11,11,12,12,13,13,14,14,15,15,18,18,19,19,20,20,21,21,22,22,24,24,25,25,26,26,27,27,28,28,29,29,30,30,32,32,33,33,35,35,36,36,37,37,38,38,39,39,40,40,41,41,42,42,43,43,44,44,45,45,46,46,47,47,48,48,49,49,50,50,51,51,52,52,54,54,56,56],"right_children":[2,4,6,8,10,12,14,16,18,20,22,24,26,28,30,32,-1,-1,34,36,38,40,42,-1,44,46,48,50,52,54,56,-1,58,60,-1,62,64,66,68,70,72,74,76,78,80,82,84,86,88,90,92,94,96,-1,98,-1,100,-1,-1,-1,-1,-1,-1,-1,-1,-1,-1,-1,-1,-1,-1,-1,-1,-1,-1,-1,-1,-1,-1,-1,-1,-1,-1,-1,-1,-1,-1,-1,-1,-1,-1,-1,-1,-1,-1,-1,-1,-1,-1,-1,-1],"split_conditions":[1.55E4,9E3,1.96E4,3.7E3,1.243E4,1.3872E4,2.75E4,2.35E1,2.25E1,1.325E4,1.3968E4,5.465E3,1.6285E4,1.75E4,1.9125E4,6.6312265E-1,-1.0765069E2,5.964844E1,-7.1308722E0,9.6E3,2.0466E4,1.388E4,1.5E4,-2.2001144E2,1.7869E4,7.5E-1,6.905753E0,1E0,2.25E4,1.7393354E-15,-5E-1,-3.135568E2,8.85456E-1,7E3,-2.8554913E2,8E3,7.5E-1,2E4,-1.8369701E-16,1E0,8.660254E-1,2.945055E1,2.15E4,5.420535E0,-8.660254E-1,2.565E1,3.3830986E1,1.775E4,9.426E3,6.9498563E0,2.083E4,2.363E4,-1.1161091E2,-2.126908E2,8.292548E0,2.0668799E2,8.640119E0,-5.7993126E1,-2.755024E2,-2.2993414E2,-6.502268E1,-2.6311728E2,-1.2358682E2,-9.230422E1,-4.9498432E1,-4.1486343E1,-9.726509E1,-1.4416029E1,1.4171194E2,-5.9001446E1,5.2188786E1,-3.6864628E1,3.3000477E1,-2.3174532E1,3.8768135E1,2.3133581E1,1.1401442E2,-1.4104909E2,-2.7526825E1,-2.2978226E1,6.341966E1,5.6998525E0,4.039579E1,8.397811E1,1.4265127E1,5.9542522E1,1.2064591E2,-4.5035034E1,6.599426E1,8.549529E1,-4.986301E1,2.0389288E2,9.9962135E1,1.2804076E2,2.2250407E2,3.0678913E1,1.9505963E2,5.77405E1,2.9289322E2,3.8197308E2,1.8298863E2],"split_indices":[17,19,17,19,17,19,17,4,3,19,19,19,19,19,19,10,0,0,21,18,18,18,18,0,18,12,1,12,17,21,6,0,10,17,0,17,12,19,7,12,7,21,19,1,7,3,21,19,18,1,17,18,21,0,1,0,1,0,0,0,0,0,0,0,0,0,0,0,0,0,0,0,0,0,0,0,0,0,0,0,0,0,0,0,0,0,0,0,0,0,0,0,0,0,0,0,0,0,0,0,0],"split_type":[0,0,0,0,0,0,0,0,0,0,0,0,0,0,0,0,0,0,0,0,0,0,0,0,0,0,0,0,0,0,0,0,0,0,0,0,0,0,0,0,0,0,0,0,0,0,0,0,0,0,0,0,0,0,0,0,0,0,0,0,0,0,0,0,0,0,0,0,0,0,0,0,0,0,0,0,0,0,0,0,0,0,0,0,0,0,0,0,0,0,0,0,0,0,0,0,0,0,0,0,0],"sum_hessian":[5.36E3,3.266E3,2.094E3,1.87E2,3.079E3,1.025E3,1.069E3,1.49E2,3.8E1,1.818E3,1.261E3,1E2,9.25E2,9.54E2,1.15E2,1.44E2,5E0,6E0,3.2E1,1.292E3,5.26E2,3.88E2,8.73E2,6E0,9.4E1,3.74E2,5.51E2,7.7E1,8.77E2,2.8E1,8.7E1,1.32E2,1.2E1,2.2E1,1E1,1.81E2,1.111E3,5.14E2,1.2E1,2.28E2,1.6E2,4.99E2,3.74E2,7.5E1,1.9E1,2.66E2,1.08E2,1.46E2,4.05E2,5.7E1,2E1,6.7E2,2.07E2,5E0,2.3E1,1.2E1,7.5E1,5E0,7E0,1.2E1,1E1,1E1,1.71E2,9.85E2,1.26E2,4.43E2,7.1E1,6E0,6E0,2.23E2,5E0,1.32E2,2.8E1,4.11E2,8.8E1,3.54E2,2E1,6E0,6.9E1,6E0,1.3E1,1.37E2,1.29E2,8.1E1,2.7E1,3.8E1,1.08E2,5E0,4E2,2.7E1,3E1,1.5E1,5E0,6.59E2,1.1E1,8E0,1.99E2,1.7E1,6E0,7E1,5E0],"tree_param":{"num_deleted":"0","num_feature":"22","num_nodes":"101","size_leaf_vector":"1"}},{"base_weights":[1.7159056E1,-2.1018455E3,2.4528396E3,-7.696656E3,-1.7018606E3,1.0762095E3,4.332382E3,-3.015233E2,2.8260122E3,-2.3236274E3,-6.421987E2,3.1355304E2,1.9881349E3,3.8371167E3,8.1717383E3,-3.9438828E1,2.0707953E2,-2.8059573E3,-1.5425975E3,-7.0550653E2,2.3917049E2,-2.2731422E2,3.9571313E2,1.8605897E3,5.044803E3,-1.4256323E2,3.8945051E3,2.300363E1,8.702052E3,-3.6682224E3,-2.6077913E3,-1.63646E3,3.0611848E3,-1.3326624E3,-2.0493315E2,-1.0083126E3,6.015902E2,2.67957E3,1.587469E3,6.034564E3,5.1185818E1,3.4611633E3,5.2640195E3,9.973865E3,5.678849E3,-2.5456027E2,-1.1782559E2,-9.5024635E1,-6.068034E1,-9.2841835E1,-5.2286415E1,2.0510678E2,-1.225168E1,-4.3505936E1,-1.9767317E2,-9.557785E0,1.0607085E2,-6.3857197E1,-3.9239044E0,1.0367575E1,5.51618E1,1.003075E2,6.6079745E0,4.7075405E1,7.43684E1,1.308285E2,2.5006223E2,8.266429E1,1.3048393E2,1.894465E2,5.2564205E1,4.530862E2,3.1034732E2,-1.3376271E1,2.3306917E2],"categories":[],"categories_nodes":[],"categories_segments":[],"categories_sizes":[],"default_left":[0,0,0,0,0,0,0,0,0,0,0,0,0,0,0,0,0,0,0,0,0,0,0,0,0,0,0,0,0,0,0,0,0,0,0,0,0,0,0,0,0,0,0,0,0,0,0,0,0,0,0,0,0,0,0,0,0,0,0,0,0,0,0,0,0,0,0,0,0,0,0,0,0,0,0],"id":11,"left_children":[1,3,5,7,9,11,13,-1,15,17,19,21,23,25,27,-1,-1,29,31,33,-1,-1,35,37,39,-1,41,-1,43,45,47,49,51,53,55,57,59,61,63,65,-1,67,69,71,73,-1,-1,-1,-1,-1,-1,-1,-1,-1,-1,-1,-1,-1,-1,-1,-1,-1,-1,-1,-1,-1,-1,-1,-1,-1,-1,-1,-1,-1,-1],"loss_changes":[2.7762182E10,6.417493E9,6.468062E9,1.8869688E9,1.7677967E9,1.0050847E9,1.9638006E9,0E0,2.1157178E8,6.310953E8,4.783676E8,4.454738E8,2.4264474E8,4.5029274E8,4.676316E8,0E0,0E0,1.641257E8,2.8817715E8,3.0991747E8,0E0,0E0,2.2680768E8,1.3554432E8,7.717594E7,0E0,5.2667187E8,0E0,3.4375066E8,1.7160166E8,7.300454E7,8.640806E7,1.3197656E8,1.5907642E8,1.22841176E8,7.320474E7,2.023944E8,7.183155E7,5.8183424E7,9.652672E6,0E0,1.9617792E8,1.1175322E8,7.94112E7,2.2068083E8,0E0,0E0,0E0,0E0,0E0,0E0,0E0,0E0,0E0,0E0,0E0,0E0,0E0,0E0,0E0,0E0,0E0,0E0,0E0,0E0,0E0,0E0,0E0,0E0,0E0,0E0,0E0,0E0,0E0,0E0],"parents":[2147483647,0,0,1,1,2,2,3,3,4,4,5,5,6,6,8,8,9,9,10,10,11,11,12,12,13,13,14,14,17,17,18,18,19,19,22,22,23,23,24,24,26,26,28,28,29,29,30,30,31,31,32,32,33,33,34,34,35,35,36,36,37,37,38,38,39,39,41,41,42,42,43,43,44,44],"right_children":[2,4,6,8,10,12,14,-1,16,18,20,22,24,26,28,-1,-1,30,32,34,-1,-1,36,38,40,-1,42,-1,44,46,48,50,52,54,56,58,60,62,64,66,-1,68,70,72,74,-1,-1,-1,-1,-1,-1,-1,-1,-1,-1,-1,-1,-1,-1,-1,-1,-1,-1,-1,-1,-1,-1,-1,-1,-1,-1,-1,-1,-1,-1],"split_conditions":[1.4996E4,8.5E3,1.96E4,2.22E3,1.4E4,1.61E4,2.363E4,-3.015233E2,5E-1,1.1729E4,1.4E4,5.465E3,1E0,9.25E3,1.4123E4,-3.9438828E1,2.0707953E2,9.8E3,1.4E4,1.25E4,2.3917049E2,-2.2731422E2,1.23E4,6.905753E0,3.1035694E1,-1.4256323E2,2.25E4,2.300363E1,6.123234E-17,7.05E3,7.5E-1,6.0738125E0,1.259E4,5.8810658E1,8.024674E1,7.5360084E0,7.5E-1,1.56E1,8.12642E0,7.712444E0,5.1185818E1,1.9E4,3.1E4,7.0033684E0,1.4E3,-2.5456027E2,-1.1782559E2,-9.5024635E1,-6.068034E1,-9.2841835E1,-5.2286415E1,2.0510678E2,-1.225168E1,-4.3505936E1,-1.9767317E2,-9.557785E0,1.0607085E2,-6.3857197E1,-3.9239044E0,1.0367575E1,5.51618E1,1.003075E2,6.6079745E0,4.7075405E1,7.43684E1,1.308285E2,2.5006223E2,8.266429E1,1.3048393E2,1.894465E2,5.2564205E1,4.530862E2,3.1034732E2,-1.3376271E1,2.3306917E2],"split_indices":[17,19,17,20,19,19,18,0,12,18,20,19,12,19,19,0,0,17,20,17,0,0,19,1,21,0,17,0,14,18,12,2,17,21,21,2,12,4,2,2,0,18,17,2,20,0,0,0,0,0,0,0,0,0,0,0,0,0,0,0,0,0,0,0,0,0,0,0,0,0,0,0,0,0,0],"split_type":[0,0,0,0,0,0,0,0,0,0,0,0,0,0,0,0,0,0,0,0,0,0,0,0,0,0,0,0,0,0,0,0,0,0,0,0,0,0,0,0,0,0,0,0,0,0,0,0,0,0,0,0,0,0,0,0,0,0,0,0,0,0,0,0,0,0,0,0,0,0,0,0,0,0,0],"sum_hessian":[5.376E3,2.875E3,2.501E3,1.9E2,2.685E3,1.445E3,1.056E3,1.75E2,1.5E1,1.691E3,9.94E2,7.88E2,6.57E2,9.38E2,1.18E2,7E0,8E0,1.043E3,6.48E2,9.87E2,7E0,8E0,7.8E2,6.33E2,2.4E1,6E0,9.32E2,8E0,1.1E2,1.9E2,8.53E2,6.36E2,1.2E1,4.37E2,5.5E2,9.9E1,6.81E2,1.55E2,4.78E2,1.8E1,6E0,7.12E2,2.2E2,7.5E1,3.5E1,1.2E1,1.78E2,7.57E2,9.6E1,7.5E1,5.61E2,6E0,6E0,4.3E2,7E0,5.4E2,1E1,5.1E1,4.8E1,5.2E2,1.61E2,1.44E2,1.1E1,3.33E2,1.45E2,8E0,1E1,1.42E2,5.7E2,2.11E2,9E0,1.6E1,5.9E1,5E0,3E1],"tree_param":{"num_deleted":"0","num_feature":"22","num_nodes":"75","size_leaf_vector":"1"}},{"base_weights":[-1.0467051E1,-2.0693218E3,2.3309739E3,-1.6682662E3,-7.452434E3,9.8755804E2,4.098339E3,-2.2829583E3,-5.714423E2,-8.196831E3,1.548767E3,2.6818094E2,1.8953168E3,3.6373413E3,7.646221E3,-2.5980977E3,-1.3325254E3,1.2392172E3,-8.7018835E2,-5.155509E3,-3.0037268E2,1.21232445E2,-1.4120853E0,-2.2844615E2,3.4852203E2,2.0847498E3,1.1704265E3,3.8583801E3,1.0491191E3,4.4412573E3,9.255441E3,-2.6247422E3,1.1448186E2,-9.6700464E2,-2.2221982E3,8.681651E2,1.9611014E2,-1.6757292E3,-2.925873E2,-2.7672543E2,-3.841949E3,7.029289E2,-5.852715E2,1.8383567E3,2.6720425E3,1.8692644E3,-2.3868109E1,3.4383196E3,5.182257E3,-1.4098721E3,3.0762363E3,5.645584E3,-9.202166E1,1.0282852E2,9.61074E3,-1.5901202E2,-8.821058E1,1.427623E2,-3.8655773E1,-8.3748085E1,4.994817E1,1.6902578E1,1.270467E2,-3.7032654E1,-1.019675E2,-1.2241262E1,1.1971892E2,-8.468908E1,-1.8394272E2,4.8331573E1,1.6589916E1,-1.0011366E2,-8.121954E0,6.164439E1,1.6487906E2,9.7285835E1,3.1224508E1,4.7020695E1,2.4741666E2,5.283903E1,-4.6932705E1,1.1819285E2,2.7008667E2,1.6747212E2,2.9937445E2,-1.2984099E2,4.9178574E1,1.2666605E2,-2.9703024E1,2.399065E2,-6.606762E1,2.5033224E2,3.8100256E2],"categories":[3,30,32,39,59,2,5,7,8,12,14,18,19,21,26,31,36,43,45,48,50,55,60,61,62,3,32,59,0,3,4,5,6,7,8,9,10,11,12,13,14,15,16,17,18,20,21,22,23,24,25,27,28,29,30,32,33,34,35,37,38,39,40,41,42,43,44,46,47,48,49,50,51,52,53,54,56,57,59,60,61,62,0,3,4,5,6,8,9,10,12,13,14,15,16,17,18,20,21,22,23,24,25,26,27,28,29,30,32,33,34,35,37,38,39,40,41,42,43,44,46,47,49,50,51,52,53,54,55,56,57,58,59,60,61,62,10,14,43,50,51,60,0,1,2,3,4,6,7,8,9,10,11,13,14,15,16,20,21,22,23,24,25,26,27,28,29,30,31,32,33,34,35,36,37,39,40,41,42,43,44,45,46,47,48,51,52,53,54,56,57,58,60,2,7,19,36,43,60,61,0,1,2,3,4,6,7,8,9,10,11,13,14,15,16,17,18,20,21,22,23,24,25,26,27,28,29,30,31,32,33,34,35,36,37,38,39,40,41,42,43,44,45,46,47,48,49,50,51,52,53,54,55,56,57,58,59,60,62,0,3,4,5,6,7,8,9,10,11,12,13,14,15,16,17,18,19,20,21,22,23,24,25,26,27,28,29,30,31,32,33,34,35,37,38,39,40,41,42,43,44,45],"categories_nodes":[1,8,9,12,13,16,24,37,41,51],"categories_segments":[0,5,25,28,82,136,142,193,200,259],"categories_sizes":[5,20,3,54,54,6,51,7,59,43],"default_left":[0,1,0,0,0,0,0,0,1,1,0,0,1,1,0,0,1,0,0,0,0,0,0,0,1,0,0,0,0,0,0,0,0,0,0,0,0,1,0,0,0,1,0,0,0,0,0,0,0,0,0,1,0,0,0,0,0,0,0,0,0,0,0,0,0,0,0,0,0,0,0,0,0,0,0,0,0,0,0,0,0,0,0,0,0,0,0,0,0,0,0,0,0],"id":12,"left_children":[1,3,5,7,9,11,13,15,17,19,21,23,25,27,29,31,33,35,37,39,-1,-1,-1,-1,41,43,45,47,49,51,53,55,-1,57,59,61,-1,63,65,-1,67,69,71,73,75,77,79,81,83,85,87,89,-1,-1,91,-1,-1,-1,-1,-1,-1,-1,-1,-1,-1,-1,-1,-1,-1,-1,-1,-1,-1,-1,-1,-1,-1,-1,-1,-1,-1,-1,-1,-1,-1,-1,-1,-1,-1,-1,-1,-1,-1],"loss_changes":[2.6123305E10,6.2066196E9,6.0139827E9,1.8086313E9,1.3557873E9,9.412197E8,1.7484042E9,5.1012813E8,5.2442384E8,1.4979994E8,5.0422384E7,4.437081E8,8.387994E7,5.497211E8,5.8044774E8,2.1468262E8,1.370976E8,2.1534888E8,3.8568045E8,4.2965696E7,0E0,0E0,0E0,0E0,2.6487499E8,6.549043E7,1.1315789E8,4.707113E8,3.978019E8,4.0118848E8,1.4057984E8,2.4039117E8,0E0,2.2071504E8,8.263379E7,1.3408346E8,0E0,2.6024915E8,1.0484334E8,0E0,2.0127936E7,8.896182E7,1.7619952E8,6.715942E7,2.4133632E7,2.1952182E8,1.0705593E8,1.4040832E8,2.2326016E8,2.4412285E8,9.728003E7,3.700215E8,0E0,0E0,1.2300339E8,0E0,0E0,0E0,0E0,0E0,0E0,0E0,0E0,0E0,0E0,0E0,0E0,0E0,0E0,0E0,0E0,0E0,0E0,0E0,0E0,0E0,0E0,0E0,0E0,0E0,0E0,0E0,0E0,0E0,0E0,0E0,0E0,0E0,0E0,0E0,0E0,0E0,0E0],"parents":[2147483647,0,0,1,1,2,2,3,3,4,4,5,5,6,6,7,7,8,8,9,9,10,10,11,11,12,12,13,13,14,14,15,15,16,16,17,17,18,18,19,19,24,24,25,25,26,26,27,27,28,28,29,29,30,30,31,31,33,33,34,34,35,35,37,37,38,38,40,40,41,41,42,42,43,43,44,44,45,45,46,46,47,47,48,48,49,49,50,50,51,51,54,54],"right_children":[2,4,6,8,10,12,14,16,18,20,22,24,26,28,30,32,34,36,38,40,-1,-1,-1,-1,42,44,46,48,50,52,54,56,-1,58,60,62,-1,64,66,-1,68,70,72,74,76,78,80,82,84,86,88,90,-1,-1,92,-1,-1,-1,-1,-1,-1,-1,-1,-1,-1,-1,-1,-1,-1,-1,-1,-1,-1,-1,-1,-1,-1,-1,-1,-1,-1,-1,-1,-1,-1,-1,-1,-1,-1,-1,-1,-1,-1],"split_conditions":[1.4996E4,1E-45,1.96E4,1.3968E4,2.22E3,1.61E4,2.363E4,1.2257E4,1E-45,1E-45,8.2E3,5.465E3,1E-45,1E-45,4.7118362E1,1.35E4,1E-45,2.1245E4,1.25E4,7.2041492E0,-3.0037268E2,1.21232445E2,-1.4120853E0,-2.2844615E2,1E-45,1.85E4,7.2577076E0,2.25E4,1.2E3,9.3985605E-1,1.6644E4,9.5E3,1.1448186E2,2.7080503E0,9.5E3,1.99E4,1.9611014E2,1E-45,1.4E4,-2.7672543E2,8.434029E0,1E-45,5.420535E0,9.951053E-1,1.05E4,2.1245E4,1E-1,1.4E4,9.6230906E-1,3.1310704E-1,7E-1,1E-45,-9.202166E1,1.0282852E2,-2.4492937E-16,-1.5901202E2,-8.821058E1,1.427623E2,-3.8655773E1,-8.3748085E1,4.994817E1,1.6902578E1,1.270467E2,-3.7032654E1,-1.019675E2,-1.2241262E1,1.1971892E2,-8.468908E1,-1.8394272E2,4.8331573E1,1.6589916E1,-1.0011366E2,-8.121954E0,6.164439E1,1.6487906E2,9.7285835E1,3.1224508E1,4.7020695E1,2.4741666E2,5.283903E1,-4.6932705E1,1.1819285E2,2.7008667E2,1.6747212E2,2.9937445E2,-1.2984099E2,4.9178574E1,1.2666605E2,-2.9703024E1,2.399065E2,-6.606762E1,2.5033224E2,3.8100256E2],"split_indices":[17,0,17,19,20,19,18,18,0,0,20,19,0,0,21,20,0,19,17,1,0,0,0,0,0,17,1,17,20,8,19,19,0,1,20,18,0,0,20,0,1,0,1,8,20,19,4,20,9,8,4,0,0,0,6,0,0,0,0,0,0,0,0,0,0,0,0,0,0,0,0,0,0,0,0,0,0,0,0,0,0,0,0,0,0,0,0,0,0,0,0,0,0],"split_type":[0,1,0,0,0,0,0,0,1,1,0,0,1,1,0,0,1,0,0,0,0,0,0,0,1,0,0,0,0,0,0,0,0,0,0,0,0,1,0,0,0,1,0,0,0,0,0,0,0,0,0,1,0,0,0,0,0,0,0,0,0,0,0,0,0,0,0,0,0,0,0,0,0,0,0,0,0,0,0,0,0,0,0,0,0,0,0,0,0,0,0,0,0],"sum_hessian":[5.416E3,2.882E3,2.534E3,2.684E3,1.98E2,1.441E3,1.093E3,1.719E3,9.65E2,1.83E2,1.5E1,8.05E2,6.36E2,9.7E2,1.23E2,1.289E3,4.3E2,1.36E2,8.29E2,2.3E1,1.6E2,6E0,9E0,8E0,7.97E2,5.02E2,1.34E2,8.93E2,7.7E1,4.3E1,8E1,1.284E3,5E0,3.07E2,1.23E2,1.27E2,9E0,3.45E2,4.84E2,5E0,1.8E1,5.78E2,2.19E2,3.58E2,1.44E2,8.4E1,5E1,6.82E2,2.11E2,3.5E1,4.2E1,3.7E1,6E0,5E0,7.5E1,6.3E1,1.221E3,7E0,3E2,1.18E2,5E0,1.13E2,1.4E1,2.32E2,1.13E2,4.78E2,6E0,1.1E1,7E0,1.44E2,4.34E2,2.8E1,1.91E2,3.51E2,7E0,1.35E2,9E0,7.8E1,6E0,2.3E1,2.7E1,6.75E2,7E0,1.92E2,1.9E1,1.9E1,1.6E1,3.7E1,5E0,3.2E1,5E0,2.9E1,4.6E1],"tree_param":{"num_deleted":"0","num_feature":"22","num_nodes":"93","size_leaf_vector":"1"}},{"base_weights":[5.4157395E0,-1.9547188E3,2.2760867E3,-1.5308638E3,-6.9090806E3,1.0118919E3,3.981893E3,-5.4018585E2,-2.125201E3,-8.0428647E3,-1.1500066E3,1.9283563E3,4.191206E2,3.5146719E3,7.84092E3,7.479217E2,-8.8973346E2,-2.1777458E3,3.5109747E2,-8.237825E3,-5.226204E3,6.820294E2,-2.5796846E3,1.8396766E3,2.094249E2,-1.9649622E2,4.910072E2,3.713453E3,5.2480634E2,4.916651E3,1.0329108E4,3.9424146E2,3.0602173E3,-1.594579E3,-3.1043625E2,-2.8153594E3,-1.5400386E3,-1.3755208E2,-2.9151648E2,-7.3976456E1,-2.2063326E2,9.003648E1,-8.0420514E2,-1.0856822E2,-5.3888298E1,2.0558388E2,1.787316E3,6.856516E2,-7.936178E2,3.2560613E3,5.0811494E3,-1.560153E3,2.4572417E3,-8.128103E1,6.0332764E3,4.915898E2,3.211604E2,-5.0870023E0,4.17944E1,5.8140938E1,1.6280775E2,-6.3005135E1,1.2315011E1,-1.4733375E1,1.6613623E2,-9.115304E1,-1.2367621E2,-6.412362E1,-2.643162E1,7.395152E0,-5.7194546E1,5.371314E1,8.009114E1,5.526187E0,3.6816536E1,-4.537495E1,6.8174545E1,1.0968209E2,2.0565434E2,1.6355092E2,2.6649976E2,1.8867153E1,-1.1866107E2,1.7423647E2,4.6525E1,2.4099712E2,2.824744E1],"categories":[3,32,36,39,51,52,59,10,11,14,15,17,19,20,26,30,35,37,41,49,50,60,61,0,3,4,6,7,8,9,10,11,13,14,15,16,17,18,20,21,22,23,24,25,27,28,29,30,31,32,33,34,35,37,38,39,40,41,42,43,44,45,46,47,48,49,50,51,52,53,54,55,56,57,59,60,61,62,0,2,3,4,6,7,9,10,11,12,13,14,15,16,17,19,20,21,22,23,25,26,27,28,29,30,31,32,33,34,35,36,37,38,39,40,41,42,43,45,46,47,48,49,50,51,52,53,54,55,56,57,62,51,0,3,4,5,6,8,9,10,12,13,14,15,16,17,18,20,21,22,23,25,26,27,28,29,30,32,33,34,35,37,38,39,40,41,43,46,47,49,50,51,52,53,54,55,56,57,58,59,60,61,62,0,1,2,3,4,5,9,10,11,12,13,14,16,19,20,33,43,48,60,20,35,41,49,0,1,2,3,4,5,6,7,8,9,10,11,12,13,14,15,16,17,19,20,21,22,23,24,25,26,27,28,29,30,31,32,33,34,35,36,37,38,39,40,41,42,43,44,45,46,47,48,49,50,51,52,53,54,55,0,1,3,4,5,6,7,8,9,10,11,12,13,14,15,16,17,18,19,20,21,22,23,24,25,26,27,28,29,30,31,32,33,34,35,37,38,39,40,41,42,43,44,45,46,47,48,49,50,51,52,53,54,55,56,57,58,59,60,61,62],"categories_nodes":[1,3,5,7,10,13,26,35,51,54],"categories_segments":[0,7,23,78,131,132,183,202,206,261],"categories_sizes":[7,16,55,53,1,51,19,4,55,61],"default_left":[0,1,0,1,0,1,0,1,0,0,1,0,0,1,0,0,0,0,0,0,0,0,0,0,0,0,1,0,0,0,0,0,0,0,0,1,0,0,0,0,0,0,0,0,0,0,0,0,0,0,0,1,0,0,1,0,0,0,0,0,0,0,0,0,0,0,0,0,0,0,0,0,0,0,0,0,0,0,0,0,0,0,0,0,0,0,0],"id":13,"left_children":[1,3,5,7,9,11,13,15,17,19,21,23,25,27,29,31,33,35,-1,37,39,41,43,45,-1,-1,47,49,51,53,55,57,59,61,63,65,67,-1,-1,-1,-1,-1,69,-1,-1,-1,71,73,75,77,79,81,83,-1,85,-1,-1,-1,-1,-1,-1,-1,-1,-1,-1,-1,-1,-1,-1,-1,-1,-1,-1,-1,-1,-1,-1,-1,-1,-1,-1,-1,-1,-1,-1,-1,-1],"loss_changes":[2.4194654E10,6.110684E9,5.425029E9,1.581846E9,1.4846556E9,7.856906E8,1.8905969E9,4.5598074E8,1.1062139E9,4.057907E7,1.0609858E8,1.879282E8,3.8645267E8,5.6673894E8,7.5693824E8,1.7524653E8,3.2407206E8,6.7436595E8,0E0,2.0252672E7,3.5356736E7,5.50817E7,5.0568E6,1.0222387E8,0E0,0E0,2.1898054E8,5.37259E8,2.5353712E8,4.6963546E8,6.593485E7,8.204959E7,5.186355E7,1.4439482E8,2.4807738E8,1.1280691E8,1.9058957E8,0E0,0E0,0E0,0E0,0E0,1.0210078E7,0E0,0E0,0E0,6.479437E7,1.4636269E8,1.6299677E8,1.8942618E8,1.7673523E8,1.19919784E8,8.248739E7,0E0,2.0771085E8,0E0,0E0,0E0,0E0,0E0,0E0,0E0,0E0,0E0,0E0,0E0,0E0,0E0,0E0,0E0,0E0,0E0,0E0,0E0,0E0,0E0,0E0,0E0,0E0,0E0,0E0,0E0,0E0,0E0,0E0,0E0,0E0],"parents":[2147483647,0,0,1,1,2,2,3,3,4,4,5,5,6,6,7,7,8,8,9,9,10,10,11,11,12,12,13,13,14,14,15,15,16,16,17,17,19,19,20,20,21,21,22,22,23,23,26,26,27,27,28,28,29,29,30,30,31,31,32,32,33,33,34,34,35,35,36,36,42,42,46,46,47,47,48,48,49,49,50,50,51,51,52,52,54,54],"right_children":[2,4,6,8,10,12,14,16,18,20,22,24,26,28,30,32,34,36,-1,38,40,42,44,46,-1,-1,48,50,52,54,56,58,60,62,64,66,68,-1,-1,-1,-1,-1,70,-1,-1,-1,72,74,76,78,80,82,84,-1,86,-1,-1,-1,-1,-1,-1,-1,-1,-1,-1,-1,-1,-1,-1,-1,-1,-1,-1,-1,-1,-1,-1,-1,-1,-1,-1,-1,-1,-1,-1,-1,-1],"split_conditions":[1.4996E4,1E-45,1.96E4,1E-45,2.22E3,1E-45,2.5E4,1E-45,1.5E4,9E3,1E-45,1E0,3.583519E0,1E-45,1E0,1.99E4,1.25E4,1.08E4,3.5109747E2,1.2E3,-8.82048E-1,4.2E3,1.4154029E-1,-9.9925E-1,2.094249E2,-1.9649622E2,1E-45,2.25E4,1.2E3,1E2,6.908755E0,2.415E1,7.5E-1,8.2E3,7.07514E1,1E-45,1.2857E4,-1.3755208E2,-2.9151648E2,-7.3976456E1,-2.2063326E2,9.003648E1,7.5252805E0,-1.0856822E2,-5.3888298E1,2.0558388E2,7.5E-1,-9.882014E-2,1.6157E4,1E0,9.291414E-1,1E-45,6.175867E0,-8.128103E1,1E-45,4.915898E2,3.211604E2,-5.0870023E0,4.17944E1,5.8140938E1,1.6280775E2,-6.3005135E1,1.2315011E1,-1.4733375E1,1.6613623E2,-9.115304E1,-1.2367621E2,-6.412362E1,-2.643162E1,7.395152E0,-5.7194546E1,5.371314E1,8.009114E1,5.526187E0,3.6816536E1,-4.537495E1,6.8174545E1,1.0968209E2,2.0565434E2,1.6355092E2,2.6649976E2,1.8867153E1,-1.1866107E2,1.7423647E2,4.6525E1,2.4099712E2,2.824744E1],"split_indices":[17,0,17,0,20,0,18,0,20,17,0,12,1,0,12,18,17,17,0,17,9,17,9,8,0,0,0,17,20,20,2,3,12,20,21,0,17,0,0,0,0,0,2,0,0,0,12,9,18,12,9,0,1,0,0,0,0,0,0,0,0,0,0,0,0,0,0,0,0,0,0,0,0,0,0,0,0,0,0,0,0,0,0,0,0,0,0],"split_type":[0,1,0,1,0,1,0,1,0,0,1,0,0,1,0,0,0,0,0,0,0,0,0,0,0,0,1,0,0,0,0,0,0,0,0,1,0,0,0,0,0,0,0,0,0,0,0,0,0,0,0,1,0,0,1,0,0,0,0,0,0,0,0,0,0,0,0,0,0,0,0,0,0,0,0,0,0,0,0,0,0,0,0,0,0,0,0],"sum_hessian":[5.433E3,2.916E3,2.517E3,2.688E3,2.28E2,1.447E3,1.07E3,1.009E3,1.679E3,1.9E2,3.8E1,5.67E2,8.8E2,9.57E2,1.13E2,2.15E2,7.94E2,1.673E3,6E0,1.75E2,1.5E1,1.7E1,2.1E1,5.57E2,1E1,9E0,8.71E2,8.97E2,6E1,5.4E1,5.9E1,1.88E2,2.7E1,3.57E2,4.37E2,8.34E2,8.39E2,5E0,1.7E2,5E0,1E1,7E0,1E1,1.2E1,9E0,5E0,5.52E2,7.57E2,1.14E2,6.76E2,2.21E2,2.9E1,3.1E1,7E0,4.7E1,1E1,4.9E1,1.13E2,7.5E1,1.6E1,1.1E1,3.23E2,3.4E1,4.29E2,8E0,6.5E2,1.84E2,6.1E2,2.29E2,5E0,5E0,3.71E2,1.81E2,3.11E2,4.46E2,9.7E1,1.7E1,6.49E2,2.7E1,1.94E2,2.7E1,1.4E1,1.5E1,8E0,2.3E1,4E1,7E0],"tree_param":{"num_deleted":"0","num_feature":"22","num_nodes":"87","size_leaf_vector":"1"}},{"base_weights":[-2.791989E1,-1.6416158E3,2.636247E3,-7.041205E3,-1.3042684E3,1.3275393E3,3.8469436E3,-7.5518296E3,-4.2707446E3,-2.0519526E3,-2.2221492E2,-7.000806E2,1.5511061E3,3.415668E3,7.1055024E3,-2.702497E2,-5.1524546E3,-5.662029E3,1.0601805E2,-2.3560881E3,-1.2477429E3,-7.5542316E2,3.4507913E2,1.0942292E2,-9.5216425E2,1.2226022E3,2.3509746E3,2.270687E3,3.7198062E3,9.71936E0,7.638547E3,-5.3858963E1,-2.5171169E2,-4.289983E3,-2.63617E2,-3.3448352E3,-2.1820125E3,-3.8598928E3,-1.1591277E3,-1.1374032E3,-3.5389264E2,2.7034048E2,1.8295433E2,-1.1448035E3,3.3326923E1,9.1857574E2,1.9115209E3,1.2664573E3,2.7921995E3,5.337651E1,2.9590413E3,3.5589172E3,7.4438047E3,3.3008594E3,8.1453306E3,-2.0505118E2,-1.3975662E1,-2.1908554E2,-1.1006251E2,-8.6043594E1,-6.477804E1,9.774943E0,-2.4338724E2,-4.4382706E1,1.296858E2,-4.7323845E1,-1.9393696E1,-2.9532846E1,5.0798106E0,-3.289802E1,1.826473E1,-8.2130035E1,-1.9955585E1,4.509341E0,3.6952072E1,1.129378E2,5.7078728E1,-2.047874E1,6.1685314E1,1.1348025E2,3.8290234E1,4.694036E1,-4.6997604E1,1.0934848E2,-1.5044775E1,1.1426917E2,1.6007088E2,2.9660123E2,1.6539137E2,1.3399405E2,6.1882954E1,2.1881644E2,3.1957532E2],"categories":[],"categories_nodes":[],"categories_segments":[],"categories_sizes":[],"default_left":[0,0,0,0,0,0,0,0,0,0,0,0,0,0,0,0,0,0,0,0,0,0,0,0,0,0,0,0,0,0,0,0,0,0,0,0,0,0,0,0,0,0,0,0,0,0,0,0,0,0,0,0,0,0,0,0,0,0,0,0,0,0,0,0,0,0,0,0,0,0,0,0,0,0,0,0,0,0,0,0,0,0,0,0,0,0,0,0,0,0,0,0,0],"id":14,"left_children":[1,3,5,7,9,11,13,15,17,19,21,23,25,27,29,-1,31,33,-1,35,37,39,41,-1,43,45,47,49,51,-1,53,-1,-1,55,-1,57,59,61,63,65,67,69,-1,71,-1,73,75,77,79,81,83,85,87,89,91,-1,-1,-1,-1,-1,-1,-1,-1,-1,-1,-1,-1,-1,-1,-1,-1,-1,-1,-1,-1,-1,-1,-1,-1,-1,-1,-1,-1,-1,-1,-1,-1,-1,-1,-1,-1,-1,-1],"loss_changes":[2.3460534E10,6.176719E9,3.2539238E9,2.3384678E8,2.5886305E9,4.5108454E8,1.4651986E9,8.072192E6,3.7611334E8,4.5847347E8,3.964963E8,1.0044126E8,2.30464E8,3.1693107E8,4.4629862E8,0E0,9.762294E7,2.721536E7,0E0,2.2511053E8,1.1423456E8,1.0300202E8,2.2976608E8,0E0,3.6302904E7,1.3068051E8,1.1839168E8,3.0883757E8,4.069284E8,0E0,2.113705E8,0E0,0E0,1.2160189E8,0E0,8.86336E7,1.0032077E8,2.1422486E8,2.760117E8,4.2145696E7,8.122766E7,1.9174496E8,0E0,5.772879E7,0E0,4.795744E7,6.3545664E7,7.271823E7,1.341719E8,9.16998E7,8.851123E7,1.9167334E8,2.2569088E7,1.570784E6,1.037481E8,0E0,0E0,0E0,0E0,0E0,0E0,0E0,0E0,0E0,0E0,0E0,0E0,0E0,0E0,0E0,0E0,0E0,0E0,0E0,0E0,0E0,0E0,0E0,0E0,0E0,0E0,0E0,0E0,0E0,0E0,0E0,0E0,0E0,0E0,0E0,0E0,0E0,0E0],"parents":[2147483647,0,0,1,1,2,2,3,3,4,4,5,5,6,6,7,7,8,8,9,9,10,10,11,11,12,12,13,13,14,14,16,16,17,17,19,19,20,20,21,21,22,22,24,24,25,25,26,26,27,27,28,28,30,30,33,33,35,35,36,36,37,37,38,38,39,39,40,40,41,41,43,43,45,45,46,46,47,47,48,48,49,49,50,50,51,51,52,52,53,53,54,54],"right_children":[2,4,6,8,10,12,14,16,18,20,22,24,26,28,30,-1,32,34,-1,36,38,40,42,-1,44,46,48,50,52,-1,54,-1,-1,56,-1,58,60,62,64,66,68,70,-1,72,-1,74,76,78,80,82,84,86,88,90,92,-1,-1,-1,-1,-1,-1,-1,-1,-1,-1,-1,-1,-1,-1,-1,-1,-1,-1,-1,-1,-1,-1,-1,-1,-1,-1,-1,-1,-1,-1,-1,-1,-1,-1,-1,-1,-1,-1],"split_conditions":[1.5625E4,8.5E3,1.96E4,3.7E3,1.25E4,1.3872E4,2.363E4,5.6670177E-1,9.750645E-1,1.325E4,1.425E4,-9.8734945E-1,7.5E-1,1.9E4,1.4123E4,-2.702497E2,8.85456E-1,-1.5127272E1,1.0601805E2,9.6E3,2.2E3,1.3473E4,2.5E4,1.0942292E2,1.85E4,1.9E4,-6.839194E-1,1.75E4,2.56E4,9.71936E0,-8.498171E-1,-5.3858963E1,-2.5171169E2,7E3,-2.63617E2,8E3,1.1022E4,7.5E-1,1E0,7.5E-1,7.609697E0,1.2257E4,1.8295433E2,1.2E4,3.3326923E1,6.798312E0,7.0769353E0,1.4557E4,5.0024807E1,2.38E1,2.7E4,4.1268665E1,5E-2,-9.611298E-1,2.75E4,-2.0505118E2,-1.3975662E1,-2.1908554E2,-1.1006251E2,-8.6043594E1,-6.477804E1,9.774943E0,-2.4338724E2,-4.4382706E1,1.296858E2,-4.7323845E1,-1.9393696E1,-2.9532846E1,5.0798106E0,-3.289802E1,1.826473E1,-8.2130035E1,-1.9955585E1,4.509341E0,3.6952072E1,1.129378E2,5.7078728E1,-2.047874E1,6.1685314E1,1.1348025E2,3.8290234E1,4.694036E1,-4.6997604E1,1.0934848E2,-1.5044775E1,1.1426917E2,1.6007088E2,2.9660123E2,1.6539137E2,1.3399405E2,6.1882954E1,2.1881644E2,3.1957532E2],"split_indices":[17,19,17,19,17,19,18,8,9,19,19,8,12,18,19,0,10,21,0,18,18,18,19,0,17,19,9,19,17,0,8,0,0,17,0,17,18,12,12,12,2,18,0,19,0,2,2,18,21,3,19,21,16,8,18,0,0,0,0,0,0,0,0,0,0,0,0,0,0,0,0,0,0,0,0,0,0,0,0,0,0,0,0,0,0,0,0,0,0,0,0,0,0],"split_type":[0,0,0,0,0,0,0,0,0,0,0,0,0,0,0,0,0,0,0,0,0,0,0,0,0,0,0,0,0,0,0,0,0,0,0,0,0,0,0,0,0,0,0,0,0,0,0,0,0,0,0,0,0,0,0,0,0,0,0,0,0,0,0,0,0,0,0,0,0,0,0,0,0,0,0,0,0,0,0,0,0,0,0,0,0,0,0,0,0,0,0,0,0],"sum_hessian":[5.454E3,3.397E3,2.057E3,1.98E2,3.199E3,9.9E2,1.067E3,1.65E2,3.3E1,1.891E3,1.308E3,9.8E1,8.92E2,9.45E2,1.22E2,1.51E2,1.4E1,2.8E1,5E0,1.37E3,5.21E2,6.74E2,6.34E2,5E0,9.3E1,6.35E2,2.57E2,2.01E2,7.44E2,9E0,1.13E2,6E0,8E0,1.9E1,9E0,2.01E2,1.169E3,1.5E1,5.06E2,3.44E2,3.3E2,6.26E2,8E0,8.5E1,8E0,4.43E2,1.92E2,7.6E1,1.81E2,4.8E1,1.53E2,7.16E2,2.8E1,1.3E1,1E2,1.3E1,6E0,1E1,1.91E2,6.32E2,5.37E2,7E0,8E0,4.96E2,1E1,2.5E2,9.4E1,1.66E2,1.64E2,1.07E2,5.19E2,2.6E1,5.9E1,6.6E1,3.77E2,3.1E1,1.61E2,1.6E1,6E1,1.42E2,3.9E1,2.5E1,2.3E1,1.46E2,7E0,5.6E2,1.56E2,1.8E1,1E1,8E0,5E0,3.8E1,6.2E1],"tree_param":{"num_deleted":"0","num_feature":"22","num_nodes":"93","size_leaf_vector":"1"}},{"base_weights":[-1.3755433E1,-1.8458588E3,2.1203472E3,-1.5146345E3,-6.9966123E3,9.490094E2,3.7110056E3,-4.4561926E2,-2.0413438E3,-2.6632904E2,1.2023348E3,1.8055035E3,4.0816348E2,3.289949E3,6.951147E3,-5.097557E2,2.2444122E2,-2.3543523E3,-8.943456E2,8.364426E1,-7.896691E0,1.7167418E3,2.0285373E2,-1.4815813E2,8.0053314E2,3.469519E3,2.7520703E2,4.685882E3,9.081511E3,6.037124E2,-8.7648975E2,9.0969244E2,-2.4177107E3,-9.983588E2,2.412414E3,3.696166E3,1.6233229E3,6.1044763E2,-6.083035E2,6.4415076E2,3.2760967E3,3.1336924E3,4.494925E3,-1.8892745E3,2.3492607E3,1.5531829E3,6.628679E3,7.0742046E3,3.60034E2,1.2514275E1,1.3553525E2,-1.6039201E2,-2.6562809E1,-4.1616333E1,1.8532173E2,-7.8812386E1,-1.3399908E2,-7.7587204E1,-2.622406E1,1.543352E2,6.966502E0,1.9614409E2,3.409982E1,3.4743332E1,6.138053E1,-2.1655433E0,3.374545E1,-6.2029366E1,2.979069E-1,8.0804086E-1,3.1486883E1,2.041175E1,1.3194327E2,1.0592943E2,1.8105933E2,-4.63506E1,1.6249052E2,-9.699043E1,-2.2952592E0,-1.4020442E1,1.145379E2,-1.6520882E2,1.2000374E2,2.5021255E2,1.25724075E2,1.4775726E2,2.77191E2],"categories":[3,32,39,59,2,10,11,14,15,17,19,20,26,28,30,35,36,37,41,43,49,50,51,60,61,0,3,4,6,7,8,9,10,11,13,14,15,16,17,18,20,21,22,23,24,25,26,27,28,29,31,32,33,34,35,37,38,39,40,41,42,43,44,45,46,47,48,49,50,51,52,53,54,55,56,57,59,60,61,62,0,3,4,5,6,8,9,10,12,13,14,15,16,17,18,20,21,22,23,25,26,27,28,29,30,32,33,35,37,38,39,40,41,42,43,46,47,49,50,51,52,53,54,55,56,57,58,59,60,61,62,0,2,3,4,5,6,9,10,11,12,13,14,15,16,17,19,20,21,22,23,25,26,27,28,29,30,31,32,33,34,35,36,37,38,39,40,41,42,43,45,46,47,48,49,50,51,52,53,54,55,56,57,62,0,1,2,3,4,5,6,7,8,9,10,12,13,14,15,16,19,20,21,22,23,24,25,26,27,28,29,30,31,32,33,34,35,36,37,39,40,41,42,43,44,45,46,47,49,50,55,60,0,1,2,3,4,5,6,7,8,9,12,21,31,33,45,48,55,62,2,20,30,35,41,51,18,0,1,3,4,5,6,7,8,9,10,11,12,13,14,15,16,17,18,19,20,21,22,23,24,25,26,27,28,29,30,31,32,33],"categories_nodes":[1,3,5,13,15,23,30,32,43,46],"categories_segments":[0,4,25,80,131,184,232,250,256,257],"categories_sizes":[4,21,55,51,53,48,18,6,1,33],"default_left":[0,1,0,1,0,1,0,0,0,0,0,0,0,1,0,1,0,0,0,0,0,0,0,1,0,0,0,0,0,0,1,0,1,0,0,0,0,0,0,0,0,0,0,1,0,0,1,0,0,0,0,0,0,0,0,0,0,0,0,0,0,0,0,0,0,0,0,0,0,0,0,0,0,0,0,0,0,0,0,0,0,0,0,0,0,0,0],"id":15,"left_children":[1,3,5,7,9,11,13,15,17,-1,19,21,23,25,27,29,-1,31,33,-1,-1,35,-1,37,39,41,43,45,47,49,51,53,55,57,59,61,63,65,67,69,71,73,75,77,79,81,83,85,-1,-1,-1,-1,-1,-1,-1,-1,-1,-1,-1,-1,-1,-1,-1,-1,-1,-1,-1,-1,-1,-1,-1,-1,-1,-1,-1,-1,-1,-1,-1,-1,-1,-1,-1,-1,-1,-1,-1],"loss_changes":[2.1156454E10,4.9512796E9,4.65178E9,1.540012E9,8.954747E8,6.666424E8,1.4111539E9,4.0319792E8,6.551045E8,0E0,2.3700924E7,1.8253363E8,1.9346824E8,5.0771456E8,5.176796E8,3.6769325E8,0E0,3.0099507E8,1.3964342E8,0E0,0E0,9.224077E7,0E0,1.2883984E8,1.979506E8,2.844887E8,2.5132182E8,3.588571E8,3.720192E7,1.7775853E8,2.8951024E8,2.717406E8,3.177298E8,1.142071E8,5.39388E7,1.1385011E8,4.0606464E7,3.326338E7,1.6479248E8,7.779442E7,3.725203E7,1.2367258E8,1.9439616E8,4.395487E7,7.432235E7,3.2430406E8,2.0720896E7,1.6176128E7,0E0,0E0,0E0,0E0,0E0,0E0,0E0,0E0,0E0,0E0,0E0,0E0,0E0,0E0,0E0,0E0,0E0,0E0,0E0,0E0,0E0,0E0,0E0,0E0,0E0,0E0,0E0,0E0,0E0,0E0,0E0,0E0,0E0,0E0,0E0,0E0,0E0,0E0,0E0],"parents":[2147483647,0,0,1,1,2,2,3,3,4,4,5,5,6,6,7,7,8,8,10,10,11,11,12,12,13,13,14,14,15,15,17,17,18,18,21,21,23,23,24,24,25,25,26,26,27,27,28,28,29,29,30,30,31,31,32,32,33,33,34,34,35,35,36,36,37,37,38,38,39,39,40,40,41,41,42,42,43,43,44,44,45,45,46,46,47,47],"right_children":[2,4,6,8,10,12,14,16,18,-1,20,22,24,26,28,30,-1,32,34,-1,-1,36,-1,38,40,42,44,46,48,50,52,54,56,58,60,62,64,66,68,70,72,74,76,78,80,82,84,86,-1,-1,-1,-1,-1,-1,-1,-1,-1,-1,-1,-1,-1,-1,-1,-1,-1,-1,-1,-1,-1,-1,-1,-1,-1,-1,-1,-1,-1,-1,-1,-1,-1,-1,-1,-1,-1,-1,-1],"split_conditions":[1.4996E4,1E-45,1.96E4,1E-45,2.22E3,1E-45,2.363E4,1.4E4,1.25E4,-2.6632904E2,2.76E1,1E0,-9.882014E-2,1E-45,1E0,1E-45,2.2444122E2,4.2E3,1.0011427E2,8.364426E1,-7.896691E0,-9.9421793E-1,2.0285373E2,1E-45,1.85E4,2.25E4,1.2E3,4.7118362E1,2.41E1,2.0466E4,1E-45,1.85E3,1E-45,5E2,1.2541E4,1E2,1.6E4,9E-1,6E2,1.428E4,1.4E4,1E0,-7.2759056E1,1E-45,5.2707773E-1,1E2,1E-45,9E2,3.60034E2,1.2514275E1,1.3553525E2,-1.6039201E2,-2.6562809E1,-4.1616333E1,1.8532173E2,-7.8812386E1,-1.3399908E2,-7.7587204E1,-2.622406E1,1.543352E2,6.966502E0,1.9614409E2,3.409982E1,3.4743332E1,6.138053E1,-2.1655433E0,3.374545E1,-6.2029366E1,2.979069E-1,8.0804086E-1,3.1486883E1,2.041175E1,1.3194327E2,1.0592943E2,1.8105933E2,-4.63506E1,1.6249052E2,-9.699043E1,-2.2952592E0,-1.4020442E1,1.145379E2,-1.6520882E2,1.2000374E2,2.5021255E2,1.25724075E2,1.4775726E2,2.77191E2],"split_indices":[17,0,17,0,20,0,18,20,17,0,3,12,9,0,12,0,0,17,21,0,0,8,0,0,17,17,20,21,3,18,0,17,0,20,18,20,17,4,20,18,18,12,21,0,9,20,0,20,0,0,0,0,0,0,0,0,0,0,0,0,0,0,0,0,0,0,0,0,0,0,0,0,0,0,0,0,0,0,0,0,0,0,0,0,0,0,0],"split_type":[0,1,0,1,0,1,0,0,0,0,0,0,0,1,0,1,0,0,0,0,0,0,0,1,0,0,0,0,0,0,1,0,1,0,0,0,0,0,0,0,0,0,0,1,0,0,1,0,0,0,0,0,0,0,0,0,0,0,0,0,0,0,0,0,0,0,0,0,0,0,0,0,0,0,0,0,0,0,0,0,0,0,0,0,0,0,0],"sum_hessian":[5.408E3,2.91E3,2.498E3,2.736E3,1.74E2,1.44E3,1.058E3,9.04E2,1.832E3,1.62E2,1.2E1,5.56E2,8.84E2,9.39E2,1.19E2,8.97E2,7E0,1.438E3,3.94E2,6E0,6E0,5.46E2,1E1,3.66E2,5.18E2,8.86E2,5.3E1,6E1,5.9E1,2.22E2,6.75E2,2.7E1,1.411E3,3.83E2,1.1E1,2.2E1,5.24E2,1.38E2,2.28E2,4.89E2,2.9E1,6.72E2,2.14E2,2.6E1,2.7E1,2.4E1,3.6E1,2.6E1,3.3E1,2.08E2,1.4E1,1.9E1,6.56E2,1.9E1,8E0,1.266E3,1.45E2,6.3E1,3.2E2,5E0,6E0,1.2E1,1E1,9.2E1,4.32E2,4.8E1,9E1,7.8E1,1.5E2,1.43E2,3.46E2,5E0,2.4E1,6.42E2,3E1,5E0,2.09E2,1.7E1,9E0,7E0,2E1,5E0,1.9E1,2.9E1,7E0,8E0,1.8E1],"tree_param":{"num_deleted":"0","num_feature":"22","num_nodes":"87","size_leaf_vector":"1"}},{"base_weights":[2.9788652E1,-1.301851E3,2.7730989E3,-9.906933E2,-6.11071E3,2.202262E3,5.162421E3,-1.8451891E3,-1.1327761E1,-3.0417253E3,-6.782542E3,1.1764684E3,2.737005E3,-1.7910934E3,5.536135E3,6.3877018E1,-2.077961E3,1.7351165E3,-2.3184822E2,-3.7752026E3,-5.7209973E2,-6.8870464E3,-8.38497E1,-1.2551826E3,1.4068387E3,2.857129E3,1.6143727E2,-4.097104E3,5.757033E1,4.562953E3,8.341845E3,-2.3963008E2,4.657387E3,2.260249E3,-2.1338708E3,8.3447174E2,3.1425857E3,2.722247E1,-9.111468E2,-4.325131E3,-3.769739E1,-1.6918452E0,-3.373379E1,-5.158001E3,-2.4839798E2,-4.5727145E2,-1.2941493E2,1.162199E3,2.120009E3,2.722386E3,4.9089814E3,2.4665557E3,-2.8653613E3,-2.0810027E2,-4.5604485E1,-1.05539474E2,4.773452E3,6.117417E3,3.592665E2,-1.1321097E2,4.983398E0,2.6882275E2,3.2973545E0,-4.0249317E1,2.099007E2,-8.7653404E1,-5.7223515E1,3.9810038E0,8.776217E1,3.048791E0,1.531068E2,-5.0155034E0,2.241367E1,-5.0250187E1,-1.9846437E1,-6.265924E1,-1.7276152E2,-2.1253284E2,-4.286029E1,3.5340694E1,-3.6205338E1,2.947982E1,6.092088E1,6.601738E1,1.4503967E2,3.85171E1,1.0000971E2,2.3349057E2,1.0976457E2,1.7317195E2,3.9428963E1,-2.0296967E2,-3.209875E1,1.7889966E2,1.00983116E2,2.8076694E2,8.758913E1],"categories":[3,32,39,51,52,59,0,2,7,10,11,14,15,17,19,20,21,26,28,30,31,35,36,37,41,43,45,48,49,50,55,60,61,0,3,4,5,6,9,10,11,12,13,14,15,16,17,18,20,21,22,23,25,26,27,28,29,31,32,33,34,35,36,37,38,39,40,41,42,43,44,45,46,47,48,49,50,51,52,53,54,55,56,57,58,59,60,61,62,0,3,4,5,6,7,8,9,10,13,14,15,16,17,20,21,22,23,24,25,26,27,28,29,30,32,33,44,10,14,15,17,20,33,37,43,48,60,61,3,32,51,59,0,1,2,3,4,5,6,7,8,9,10,11,12,13,14,15,16,17,18,19,20,21,22,23,24,25,26,27,28,29,30,31,32,33,34,35,36,37,38,39,40,41,42,43,44,45,60,0,3,4,5,6,7,9,10,11,12,13,14,15,16,17,18,19,20,21,22,23,24,25,26,27,28,29,30,31,32,33,34,35,37,38,39,40,41,42,43,44,0,2,3,4,5,6,7,8,9,10,12,13,14,15,16,17,18,19,20,21,22,23,24,25,26,27,28,29,30,31,32,33,34,35,36,37,38,39,40,41,42,43,44,45,46,47,48,49,50,51,52,53,54,55,56,57,58,59,60,61,62,0,1,3,4,5,6,8,9,10,11,12,13,14,15,16,17,18,19,20,21,22,23,24,25,26,27,28,29,30,32,33,34,35,37,38,39,40,41,42,43,44,45,46,47,48,49,50,51,52,53,54,55,56,57,58,59,60,61,62,0,1,3,4,5,6,7,8,9,10,11,12,13,14,15,16,17,18,19,20,21,22,23,24,25,26,27,28,29,30,32,33,34,35,36,37,38,39,40,41,42,43,44,45,46,47,48,49,50,51,52,53,54,55,56,57,58,59,60,61,62],"categories_nodes":[1,7,8,12,18,21,45,48,50,56,57],"categories_segments":[0,6,33,89,117,128,132,179,220,281,340],"categories_sizes":[6,27,56,28,11,4,47,41,61,59,61],"default_left":[0,1,0,0,0,0,0,1,1,0,0,0,1,0,0,0,0,0,1,0,0,1,0,0,0,0,0,0,0,0,0,0,0,0,0,0,0,0,0,0,0,0,0,0,0,1,0,0,1,0,1,0,0,0,0,0,1,1,0,0,0,0,0,0,0,0,0,0,0,0,0,0,0,0,0,0,0,0,0,0,0,0,0,0,0,0,0,0,0,0,0,0,0,0,0,0,0],"id":16,"left_children":[1,3,5,7,9,11,13,15,17,19,21,23,25,27,29,31,33,35,37,39,41,43,-1,45,47,49,51,53,-1,55,57,59,61,63,65,67,69,71,73,75,-1,-1,-1,77,-1,79,-1,81,83,85,87,89,91,-1,-1,-1,93,95,-1,-1,-1,-1,-1,-1,-1,-1,-1,-1,-1,-1,-1,-1,-1,-1,-1,-1,-1,-1,-1,-1,-1,-1,-1,-1,-1,-1,-1,-1,-1,-1,-1,-1,-1,-1,-1,-1,-1],"loss_changes":[1.9803394E10,5.4517135E9,2.3991183E9,2.8699924E9,4.2575104E8,7.8094694E8,8.997048E8,8.140759E8,6.166134E8,7.374499E7,5.799936E7,2.7909773E8,2.902871E8,1.5669118E8,8.262093E8,2.812042E8,4.031954E8,2.2360557E8,2.5020189E8,4.123459E7,2.2894618E6,8.824832E6,0E0,8.2236536E7,7.507699E7,2.2836326E8,3.1410643E8,4.7778944E7,0E0,4.100311E8,2.5441382E8,2.1750125E8,1.7135987E8,2.8433568E8,2.919342E8,1.34017816E8,2.6102778E8,1.0788574E8,6.962822E7,2.7781504E7,0E0,0E0,0E0,7.696154E7,0E0,3.0778148E7,0E0,6.062176E7,4.198336E7,1.8067712E8,1.3575475E8,7.642256E7,1.034785E8,0E0,0E0,0E0,1.2943974E8,2.5559309E8,0E0,0E0,0E0,0E0,0E0,0E0,0E0,0E0,0E0,0E0,0E0,0E0,0E0,0E0,0E0,0E0,0E0,0E0,0E0,0E0,0E0,0E0,0E0,0E0,0E0,0E0,0E0,0E0,0E0,0E0,0E0,0E0,0E0,0E0,0E0,0E0,0E0,0E0,0E0],"parents":[2147483647,0,0,1,1,2,2,3,3,4,4,5,5,6,6,7,7,8,8,9,9,10,10,11,11,12,12,13,13,14,14,15,15,16,16,17,17,18,18,19,19,20,20,21,21,23,23,24,24,25,25,26,26,27,27,29,29,30,30,31,31,32,32,33,33,34,34,35,35,36,36,37,37,38,38,39,39,43,43,45,45,47,47,48,48,49,49,50,50,51,51,52,52,56,56,57,57],"right_children":[2,4,6,8,10,12,14,16,18,20,22,24,26,28,30,32,34,36,38,40,42,44,-1,46,48,50,52,54,-1,56,58,60,62,64,66,68,70,72,74,76,-1,-1,-1,78,-1,80,-1,82,84,86,88,90,92,-1,-1,-1,94,96,-1,-1,-1,-1,-1,-1,-1,-1,-1,-1,-1,-1,-1,-1,-1,-1,